{"internalDocumentIDStore":{"internalIdToId":["22fa1c9c87ce1d30b1cd799b22a0a302","391204ca04c85d9757240aef973fb259","6fbcfabe3a4241d366b412bb58b7927d"]},"index":{"indexes":{"id":{"type":"Radix","node":{"w":"","s":"","c":{"2":{"w":"22fa1c9c87ce1d30b1cd799b22a0a302","s":"22fa1c9c87ce1d30b1cd799b22a0a302","c":{},"d":[1],"e":true},"3":{"w":"391204ca04c85d9757240aef973fb259","s":"391204ca04c85d9757240aef973fb259","c":{},"d":[2],"e":true},"6":{"w":"6fbcfabe3a4241d366b412bb58b7927d","s":"6fbcfabe3a4241d366b412bb58b7927d","c":{},"d":[3],"e":true}},"d":[],"e":false},"isArray":false},"title":{"type":"Radix","node":{"w":"","s":"","c":{"g":{"w":"go","s":"go","c":{},"d":[2,3],"e":true},"a":{"w":"air","s":"air","c":{},"d":[2],"e":true},"z":{"w":"zap","s":"zap","c":{},"d":[3],"e":true}},"d":[],"e":false},"isArray":false},"path":{"type":"Radix","node":{"w":"","s":"","c":{"m":{"w":"md","s":"md","c":{},"d":[1,2,3],"e":true},"g":{"w":"go","s":"go","c":{},"d":[2,3],"e":true},"a":{"w":"air","s":"air","c":{},"d":[2],"e":true},"z":{"w":"zap","s":"zap","c":{},"d":[3],"e":true}},"d":[],"e":false},"isArray":false},"content":{"type":"Radix","node":{"w":"","s":"","c":{"0":{"w":"0","s":"0","c":{"4":{"w":"04","s":"4","c":{},"d":[1,2,3],"e":true},"9":{"w":"09","s":"9","c":{},"d":[2],"e":true}},"d":[],"e":false},"1":{"w":"1","s":"1","c":{"0":{"w":"10","s":"0","c":{},"d":[2,3],"e":true},"2":{"w":"12345","s":"2345","c":{},"d":[3],"e":true},"4":{"w":"14","s":"4","c":{},"d":[2],"e":true},"5":{"w":"15","s":"5","c":{},"d":[1,3],"e":true},"6":{"w":"16","s":"6","c":{"8":{"w":"168","s":"8","c":{},"d":[3],"e":true}},"d":[1],"e":true},"9":{"w":"192","s":"92","c":{},"d":[3],"e":true}},"d":[1,2,3],"e":true},"2":{"w":"2","s":"2","c":{"0":{"w":"20","s":"0","c":{"2":{"w":"2025","s":"25","c":{},"d":[1,2,3],"e":true}},"d":[1],"e":true},"1":{"w":"21","s":"1","c":{},"d":[2],"e":true},"2":{"w":"22","s":"2","c":{},"d":[3],"e":true},"5":{"w":"25","s":"5","c":{},"d":[1,3],"e":true},"6":{"w":"26","s":"6","c":{},"d":[2,3],"e":true},"7":{"w":"27","s":"7","c":{},"d":[3],"e":true}},"d":[1,2,3],"e":true},"3":{"w":"3","s":"3","c":{"5":{"w":"35","s":"5","c":{},"d":[2],"e":true},"9":{"w":"39","s":"9","c":{},"d":[2],"e":true}},"d":[1,2,3],"e":true},"4":{"w":"4","s":"4","c":{"2":{"w":"42","s":"2","c":{},"d":[1],"e":true},"6":{"w":"46","s":"6","c":{},"d":[3],"e":true}},"d":[1,2,3],"e":true},"5":{"w":"52","s":"52","c":{},"d":[1,3],"e":true},"6":{"w":"6","s":"6","c":{},"d":[1],"e":true},"8":{"w":"8","s":"8","c":{"0":{"w":"8080","s":"080","c":{},"d":[2],"e":true},"2":{"w":"824","s":"24","c":{},"d":[1],"e":true}},"d":[],"e":false},"n":{"w":"n","s":"n","c":{"o":{"w":"note","s":"ote","c":{},"d":[1,2,3],"e":true},"a":{"w":"nacos","s":"acos","c":{},"d":[1],"e":true}},"d":[],"e":false},"t":{"w":"t","s":"t","c":{"i":{"w":"ti","s":"i","c":{"t":{"w":"title","s":"tle","c":{},"d":[1,2,3],"e":true},"m":{"w":"time","s":"me","c":{},"d":[2],"e":true}},"d":[],"e":false},"r":{"w":"tr","s":"r","c":{"a":{"w":"traefik","s":"aefik","c":{},"d":[1],"e":true},"u":{"w":"true","s":"ue","c":{},"d":[2],"e":true}},"d":[],"e":false},"o":{"w":"toml","s":"oml","c":{},"d":[2],"e":true},"m":{"w":"tmp","s":"mp","c":{},"d":[2],"e":true},"e":{"w":"templates","s":"emplates","c":{},"d":[2],"e":true}},"d":[],"e":false},"m":{"w":"m","s":"m","c":{"e":{"w":"metadata","s":"etadata","c":{},"d":[1,2,3],"e":true},"o":{"w":"mod","s":"od","c":{"i":{"w":"modified","s":"ified","c":{},"d":[1,2,3],"e":true}},"d":[2],"e":true},"i":{"w":"mit","s":"it","c":{},"d":[1],"e":true},"a":{"w":"main","s":"ain","c":{},"d":[2],"e":true}},"d":[],"e":false},"c":{"w":"c","s":"c","c":{"r":{"w":"created","s":"reated","c":{},"d":[1,2,3],"e":true},"o":{"w":"co","s":"o","c":{"n":{"w":"con","s":"n","c":{"t":{"w":"content","s":"tent","c":{},"d":[1,2,3],"e":true},"s":{"w":"consul","s":"sul","c":{},"d":[1],"e":true}},"d":[],"e":false},"m":{"w":"com","s":"m","c":{},"d":[2],"e":true}},"d":[],"e":false},"l":{"w":"cli","s":"li","c":{},"d":[2],"e":true},"m":{"w":"cmd","s":"md","c":{},"d":[2],"e":true}},"d":[],"e":false},"b":{"w":"b","s":"b","c":{"l":{"w":"block","s":"lock","c":{},"d":[1,2,3],"e":true},"u":{"w":"build","s":"uild","c":{},"d":[2],"e":true},"i":{"w":"bin","s":"in","c":{},"d":[2],"e":true}},"d":[],"e":false},"-":{"w":"-","s":"-","c":{"o":{"w":"-o","s":"o","c":{},"d":[2],"e":true},"-":{"w":"--","s":"-","c":{"b":{"w":"--build","s":"build","c":{},"d":[2],"e":true},"p":{"w":"--port","s":"port","c":{},"d":[2],"e":true}},"d":[],"e":false}},"d":[1,2,3],"e":true},"s":{"w":"s","s":"s","c":{"e":{"w":"se","s":"e","c":{"n":{"w":"sentinel","s":"ntinel","c":{},"d":[1],"e":true},"r":{"w":"server","s":"rver","c":{},"d":[2],"e":true}},"d":[],"e":false},"t":{"w":"st","s":"t","c":{"r":{"w":"str","s":"r","c":{"e":{"w":"stream","s":"eam","c":{},"d":[1],"e":true},"i":{"w":"string","s":"ing","c":{},"d":[3],"e":true}},"d":[],"e":false},"a":{"w":"stack","s":"ack","c":{},"d":[3],"e":true}},"d":[],"e":false},"h":{"w":"shell","s":"hell","c":{},"d":[2],"e":true},"y":{"w":"sy","s":"y","c":{"s":{"w":"systemd","s":"stemd","c":{},"d":[2],"e":true},"n":{"w":"sync","s":"nc","c":{},"d":[3],"e":true}},"d":[],"e":false},"u":{"w":"sugaredlogger","s":"ugaredlogger","c":{},"d":[3],"e":true}},"d":[],"e":false},"e":{"w":"e","s":"e","c":{"n":{"w":"en","s":"n","c":{"v":{"w":"envoy","s":"voy","c":{},"d":[1],"e":true},"c":{"w":"encoder","s":"coder","c":{},"d":[3],"e":true}},"d":[],"e":false},"t":{"w":"etcd","s":"tcd","c":{},"d":[1],"e":true},"x":{"w":"exclude_dir","s":"xclude_dir","c":{},"d":[2],"e":true},"l":{"w":"el","s":"l","c":{"k":{"w":"elk","s":"k","c":{},"d":[3],"e":true},"a":{"w":"elasticsearch","s":"asticsearch","c":{},"d":[3],"e":true}},"d":[],"e":false}},"d":[],"e":false},"r":{"w":"r","s":"r","c":{"a":{"w":"ra","s":"a","c":{"t":{"w":"rate-limit","s":"te-limit","c":{},"d":[1],"e":true},"f":{"w":"raft","s":"ft","c":{},"d":[1],"e":true}},"d":[],"e":false},"e":{"w":"re","s":"e","c":{"s":{"w":"resilience4j","s":"silience4j","c":{},"d":[1],"e":true},"d":{"w":"redis","s":"dis","c":{},"d":[1],"e":true}},"d":[],"e":false},"b":{"w":"rbac","s":"bac","c":{},"d":[1],"e":true},"u":{"w":"run","s":"un","c":{},"d":[2],"e":true}},"d":[],"e":false},"h":{"w":"hystrix","s":"hystrix","c":{},"d":[1],"e":true},"k":{"w":"k","s":"k","c":{"8":{"w":"k8s","s":"8s","c":{},"d":[1],"e":true},"o":{"w":"kong","s":"ong","c":{},"d":[1],"e":true},"a":{"w":"kafka","s":"afka","c":{},"d":[1],"e":true},"v":{"w":"kv","s":"v","c":{},"d":[1],"e":true},"i":{"w":"kibana","s":"ibana","c":{},"d":[3],"e":true}},"d":[],"e":false},"j":{"w":"j","s":"j","c":{"a":{"w":"jaeger","s":"aeger","c":{},"d":[1],"e":true},"w":{"w":"jwt","s":"wt","c":{},"d":[1],"e":true},"s":{"w":"json","s":"son","c":{},"d":[3],"e":true},"o":{"w":"john_doe","s":"ohn_doe","c":{},"d":[3],"e":true}},"d":[],"e":false},"p":{"w":"p","s":"p","c":{"r":{"w":"pr","s":"r","c":{"o":{"w":"prometheus","s":"ometheus","c":{},"d":[1],"e":true},"i":{"w":"printf","s":"intf","c":{},"d":[3],"e":true}},"d":[],"e":false},"k":{"w":"pkg","s":"kg","c":{},"d":[2],"e":true},"o":{"w":"pool","s":"ool","c":{},"d":[3],"e":true}},"d":[],"e":false},"o":{"w":"o","s":"o","c":{"a":{"w":"oauth","s":"auth","c":{},"d":[1],"e":true}},"d":[3],"e":true},"d":{"w":"d","s":"d","c":{"d":{"w":"ddd","s":"dd","c":{},"d":[1],"e":true},"o":{"w":"docker","s":"ocker","c":{},"d":[2],"e":true}},"d":[],"e":false},"l":{"w":"l","s":"l","c":{"s":{"w":"lsm","s":"sm","c":{},"d":[1],"e":true},"a":{"w":"latest","s":"atest","c":{},"d":[2],"e":true},"o":{"w":"log","s":"og","c":{"g":{"w":"logge","s":"ge","c":{"r":{"w":"logger","s":"r","c":{},"d":[3],"e":true},"d":{"w":"logged","s":"d","c":{},"d":[3],"e":true}},"d":[],"e":false},"r":{"w":"logrus","s":"rus","c":{},"d":[3],"e":true},"s":{"w":"logstash","s":"stash","c":{},"d":[3],"e":true}},"d":[2],"e":true}},"d":[],"e":false},"g":{"w":"g","s":"g","c":{"o":{"w":"go","s":"o","c":{"p":{"w":"gopath","s":"path","c":{},"d":[2],"e":true}},"d":[2,3],"e":true},"i":{"w":"git","s":"it","c":{"h":{"w":"github","s":"hub","c":{},"d":[2],"e":true},"i":{"w":"gitignore","s":"ignore","c":{},"d":[2],"e":true}},"d":[],"e":false},"e":{"w":"get","s":"et","c":{},"d":[2],"e":true}},"d":[],"e":false},"a":{"w":"a","s":"a","c":{"i":{"w":"air","s":"ir","c":{"-":{"w":"air-verse","s":"-verse","c":{},"d":[2],"e":true}},"d":[2],"e":true},"p":{"w":"api","s":"pi","c":{},"d":[2,3],"e":true}},"d":[],"e":false},"i":{"w":"i","s":"i","c":{"n":{"w":"in","s":"n","c":{"s":{"w":"install","s":"stall","c":{},"d":[2],"e":true},"i":{"w":"init","s":"it","c":{},"d":[2],"e":true},"t":{"w":"int","s":"t","c":{"e":{"w":"interface","s":"erface","c":{},"d":[3],"e":true}},"d":[3],"e":true},"f":{"w":"info","s":"fo","c":{},"d":[3],"e":true}},"d":[3],"e":true},"p":{"w":"ip","s":"p","c":{},"d":[3],"e":true}},"d":[3],"e":true},"f":{"w":"f","s":"f","c":{"u":{"w":"full_bin","s":"ull_bin","c":{},"d":[2],"e":true},"i":{"w":"field","s":"ield","c":{},"d":[3],"e":true},"o":{"w":"formatter","s":"ormatter","c":{},"d":[3],"e":true}},"d":[],"e":false},"w":{"w":"w","s":"w","c":{"i":{"w":"will","s":"ill","c":{},"d":[2],"e":true},"r":{"w":"wrapper","s":"rapper","c":{},"d":[3],"e":true}},"d":[],"e":false},"z":{"w":"zap","s":"zap","c":{},"d":[3],"e":true},"u":{"w":"user","s":"user","c":{"n":{"w":"username","s":"name","c":{},"d":[3],"e":true},"_":{"w":"user_id","s":"_id","c":{},"d":[3],"e":true}},"d":[3],"e":true}},"d":[],"e":false},"isArray":false},"embeddingModel":{"type":"Radix","node":{"w":"","s":"","c":{"d":{"w":"doubao-embedding-text-240715","s":"doubao-embedding-text-240715","c":{},"d":[1,2,3],"e":true}},"d":[],"e":false},"isArray":false},"created_at":{"type":"AVL","node":{"root":{"k":1745634203420,"v":[1],"l":{"k":0,"v":[],"l":null,"r":null,"h":0},"r":{"k":1745634203427,"v":[2],"l":null,"r":{"k":1745634203428,"v":[3],"l":null,"r":null,"h":0},"h":1},"h":2}},"isArray":false},"ctime":{"type":"AVL","node":{"root":{"k":1745137242922,"v":[1],"l":{"k":0,"v":[],"l":null,"r":null,"h":0},"r":{"k":1745631554912,"v":[2],"l":{"k":1745567566636,"v":[3],"l":null,"r":null,"h":0},"r":null,"h":1},"h":2}},"isArray":false},"mtime":{"type":"AVL","node":{"root":{"k":1745567540381,"v":[1],"l":{"k":0,"v":[],"l":null,"r":null,"h":0},"r":{"k":1745634095510,"v":[2],"l":null,"r":{"k":1745634147208,"v":[3],"l":null,"r":null,"h":0},"h":1},"h":2}},"isArray":false},"tags":{"type":"Radix","node":{"w":"","s":"","c":{},"d":[],"e":false},"isArray":true},"extension":{"type":"Radix","node":{"w":"","s":"","c":{"m":{"w":"md","s":"md","c":{},"d":[1,2,3],"e":true}},"d":[],"e":false},"isArray":false}},"vectorIndexes":{"embedding":{"size":2560,"vectors":{"22fa1c9c87ce1d30b1cd799b22a0a302":[149.93437380168032,[-3.03125,1.421875,0.875,-2.296875,-1.7109375,4.15625,-1.03125,-2.5625,1.1953125,2.234375,4.40625,2.03125,2.015625,-0.7109375,2.09375,2.375,0.416015625,-1.8515625,-0.80859375,-5.46875,0.62109375,6.1875,3.59375,-5.875,0.0673828125,-4.34375,-1.1015625,1.4375,-0.06591796875,0.4921875,3.046875,-2.046875,-0.83984375,-0.82421875,-1.875,-1.28125,-2.546875,-3.265625,5.25,2.515625,-4.03125,0.41015625,-1.0546875,2.09375,-5.1875,1.890625,1.6328125,-3.328125,-4.9375,-1.9453125,-2.75,-2.375,8.9375,-1.5703125,3.484375,-3.75,-7.625,2.515625,-6.5625,-2.15625,3.015625,-0.392578125,1.8828125,2.84375,0.62109375,1.765625,-1.3828125,1.03125,0.4453125,2.234375,-2.828125,-0.2080078125,6.65625,-1.828125,4.53125,4.78125,0.228515625,3.453125,-1.78125,5.1875,-7.125,1.4765625,4.25,2.96875,4.40625,2.71875,-0.35546875,-1.484375,-3.46875,2.5,0.3125,-1.84375,-4.59375,-3.890625,3.109375,-1.1171875,-1.7265625,-1.875,-3.234375,-1.203125,-8.25,-1.8359375,1.8671875,-2.71875,-2.171875,-2.734375,-4.75,-5.25,-3,-4.03125,-1.421875,-1.5703125,1.546875,-1.609375,5.75,-1.8515625,3.078125,-3.203125,-3.890625,0.609375,-0.236328125,-3.953125,2.78125,-3.46875,0.828125,2.25,-2.109375,5.75,5.5,1.6015625,6.25,2.234375,5.03125,-2.453125,-6.75,-2.296875,-4.09375,2.453125,5.53125,2.9375,-6.53125,1.734375,-3.265625,-5.40625,2.671875,-0.640625,-8.3125,1.0546875,3.796875,0.69140625,-1.0625,1.5390625,3.75,3.703125,-1.5390625,-4.8125,2.4375,1.6875,0.201171875,0.12109375,-0.06884765625,-0.2275390625,2.109375,2.015625,-1.9140625,-1.65625,-1.6875,3.265625,-1.828125,0.640625,0.09423828125,16.5,3.84375,-3.765625,-0.185546875,5,-4.46875,7.6875,5.25,-0.87890625,1.9375,1.8359375,-5.65625,5.78125,-0.7109375,2.75,-1.2890625,0.255859375,3.640625,-1.9609375,1.2734375,4.375,1.359375,2.328125,-3.71875,2.609375,1.8203125,-1.8125,0.412109375,0.6953125,-3.21875,-8.5,-1.0234375,-0.49609375,-1.6875,-4.1875,3.53125,0.6953125,1.1875,2.578125,3.890625,2.671875,-0.54296875,0.32421875,6.1875,-1.1640625,4.34375,-0.212890625,5.25,-1.3515625,3.40625,2.21875,2.921875,-2.1875,-1.5390625,-1.984375,5.6875,2.3125,2.453125,2.34375,0.2470703125,1.078125,6.875,-1.96875,-1.46875,-5.03125,-6.4375,1.5390625,0.90625,1.5,-3.859375,-6.4375,-1.0625,1.9921875,1.3125,-1.6171875,-2.828125,2.21875,-3.828125,-10.8125,-0.484375,3.390625,-5.40625,-1.0703125,-0.61328125,5.90625,-0.7890625,-1.7890625,1.8203125,1.2890625,2.78125,-4.03125,-6.125,3.5625,1.6171875,0.8984375,2.890625,1.9765625,3.34375,1.515625,2.140625,-3.3125,1.7265625,0.10986328125,-1.421875,8.6875,-2.265625,-2.5,0.0194091796875,-3.5625,-6.59375,-7.40625,4.6875,-2.296875,3.203125,-5.3125,-1.515625,5.34375,0.326171875,11.875,4.6875,0.435546875,0.3125,-2.375,-4.71875,1.1484375,-1.265625,0.53515625,-3.828125,0.984375,3.4375,1.8125,-0.5546875,0.73828125,-2.1875,1.640625,-0.90234375,-2.078125,-0.1484375,0.7890625,-1.0625,0.1435546875,6.90625,-4.125,2.484375,-2.3125,-0.12890625,2.03125,1.671875,0.2197265625,-2.21875,-1.515625,-5.84375,-2.25,-4.09375,-1.3984375,3.6875,0.216796875,6.3125,1.515625,5.46875,-0.392578125,-7.46875,-8.8125,7.78125,0.5703125,0.10107421875,6.0625,-4.125,0.7578125,-4.875,-4.375,3.078125,-3.921875,-1.7890625,2.765625,3.515625,-2.390625,1.8125,-4.8125,0.9921875,1.953125,-0.703125,5.71875,8,-2.734375,0.78515625,0.66796875,0.1083984375,-1.453125,0.11474609375,-2.078125,7.53125,2.609375,-1.34375,-2.984375,-2.234375,3.046875,-4.46875,-2.21875,-0.447265625,-3.671875,4.21875,1.2734375,-0.259765625,-2.375,-2.78125,-2.828125,-5.46875,1.7265625,0.734375,-2.515625,3.328125,-2.703125,2.0625,3,1.296875,4.78125,0.251953125,-1.8125,-2.4375,2.203125,-1.5625,-0.240234375,1.6328125,1.96875,-1.5,1.3359375,-3.09375,0.7734375,1.3515625,-0.5625,1.75,1.5703125,-3.859375,0.37890625,0.359375,-7.90625,4.125,2.859375,-0.2119140625,0.69140625,2.34375,-2.25,-0.123046875,2.40625,-1.4453125,1.828125,-8.8125,0.69921875,-2.65625,5.125,2.984375,-2.03125,1.0234375,-1.1484375,2.046875,7.75,2.640625,1.21875,3.03125,1.8671875,-3.625,-3.734375,-0.7109375,-4.84375,0.703125,-6.71875,-4.28125,3.046875,4.5625,0.34765625,2.84375,2.546875,-4.53125,-2.859375,2.5,5,-3.34375,-2.59375,-1.390625,0.44921875,-2.8125,4.03125,4.40625,-0.82421875,-3.6875,2.25,4.84375,-1.4453125,0.60546875,-5.375,1.90625,0.04541015625,3.1875,-4.5625,-1.046875,4.65625,7.21875,-4.9375,-6.6875,1.921875,-3.75,-4.09375,-1.8359375,3.171875,-0.095703125,0.5546875,-5.65625,-6.46875,-1.25,-1.4609375,6.875,0.349609375,0.42578125,-4.53125,1.5546875,7.53125,1.734375,4.3125,-1.1484375,0.8359375,3.671875,-3.15625,1.15625,5.78125,9.125,-0.1318359375,-0.68359375,0.7734375,-7.3125,0.042236328125,-1.96875,-2,-1.5703125,3.625,5,-4.40625,-0.04443359375,-0.6953125,4.21875,-1.1484375,-3.71875,2.03125,-0.12890625,-5.40625,-0.006927490234375,1.2578125,2.453125,-3.65625,-1.8984375,0.302734375,1.34375,-0.251953125,-1.265625,-1.5390625,1.140625,-1.9375,0.62109375,4.34375,4.625,-0.162109375,-0.359375,-3.46875,-2.5,-2.84375,0.7734375,-3.171875,0.173828125,-0.25,3.390625,-0.88671875,-4.3125,-2.015625,0.84375,1.484375,-0.484375,0.4140625,-0.0196533203125,1.625,4.15625,-1.03125,-6.75,2.140625,2.296875,-0.6484375,-4.53125,-3.5,3.4375,0.953125,-1,-3.046875,7.53125,2.375,0.380859375,1.3671875,2.5,6.65625,3.6875,-0.490234375,1.0703125,2.03125,-3.46875,-2.78125,0.86328125,2.28125,-3.09375,-5.375,-0.625,1.046875,3.265625,-1.0546875,1.0078125,-2.71875,4.875,0.1982421875,3.21875,-11.625,3.65625,-2.15625,-4.875,-1.6015625,-5.03125,2.921875,-2.890625,-0.8515625,1.3984375,-3.59375,0.9296875,5.90625,-2.78125,2.3125,5.25,-0.88671875,-2.5,2.859375,0.291015625,-1.1875,1.25,1.6328125,2.34375,0.216796875,2.84375,-2.40625,2.15625,3.453125,-6.78125,-1.0234375,4.28125,-1.59375,-2.296875,0.5234375,-4.03125,3.40625,-2.6875,3.96875,1.2109375,-6.65625,2.25,3.09375,-1.6328125,0.60546875,-3,1.9453125,3.4375,3.9375,-3.953125,1.28125,3.984375,2.328125,2.375,-1.53125,2.6875,-2.96875,3.921875,1.2734375,-2.9375,2.453125,-0.2158203125,-4.125,2.40625,1.3515625,0.302734375,-1.5390625,0.8203125,1.0625,1.1875,-4.5,0.9140625,-2.328125,-5.125,1.9140625,0.244140625,-5.40625,4.96875,-2.890625,0.369140625,-3.765625,0.57421875,2.484375,2.234375,-2.65625,0.048828125,4.40625,0.50390625,-1.828125,5.6875,-2.28125,-1.7734375,0.5703125,-2.90625,-1.578125,-0.0703125,0.625,-0.58984375,-1.296875,-3.328125,-0.71484375,-6.78125,-4.03125,-0.8359375,-3.515625,1.484375,-3.296875,3.171875,-0.0224609375,-2.765625,0.91015625,-0.71484375,-0.64453125,-0.302734375,-0.87890625,-5.375,-0.2421875,7.3125,1.6328125,-0.703125,6.03125,0.28515625,-4.71875,-3.265625,2.46875,-3.703125,-0.275390625,3.78125,-1.765625,-2.046875,-2.609375,0.421875,-2.203125,-0.578125,-1.328125,0.6171875,-1.8046875,-4.71875,-1.765625,-4.75,-3.71875,3.78125,2.03125,-2.09375,-5.40625,1.015625,3.046875,-0.82421875,1.625,1.109375,1.5,-3.203125,2.09375,-2.140625,-3.375,2.8125,-0.7109375,-1.9765625,1.890625,-3.34375,2.0625,3.234375,2.953125,-3.375,-3.75,0.5,-2.296875,1.6171875,0.349609375,2.671875,-1.1796875,6.15625,-3.40625,-3.546875,0.1025390625,6.375,-1.9453125,-1.5625,-4.4375,2.59375,-3.015625,4.1875,-2.984375,-3.046875,0.921875,0.453125,0.5390625,0.49609375,8,-3.75,-0.2451171875,-0.380859375,1.8828125,1.171875,-1.203125,2.546875,1.0625,-0.185546875,0.25390625,4.90625,0.6015625,-2.125,0.3046875,-4.53125,1.4140625,0.90625,1.4296875,-1.0859375,-1.4765625,0.1103515625,-2.234375,0.51953125,5.21875,6.375,0.85546875,2.921875,-2.390625,2.625,-3.59375,2.25,2.671875,11.625,-1.828125,-3.9375,2.75,2.6875,2.390625,0.038818359375,-6.25,-1.4296875,1.078125,4.03125,-5.25,-0.007781982421875,-1.90625,2.15625,0.7109375,1,3.25,0.318359375,5.1875,-0.98046875,-2.484375,2.109375,-1.421875,-0.283203125,0.69921875,4.0625,-0.95703125,2.1875,1.625,6.25,-1.3828125,-3.625,-4.5625,4.40625,2.453125,-0.73046875,0.65625,-2.140625,2.234375,1.0625,6.03125,-2.453125,-0.69140625,6,3.578125,-3.140625,3.125,0.60546875,2.09375,-2.421875,-3.59375,0.53125,-3.125,-0.140625,-6.25,-0.9296875,1.15625,-3.4375,4.40625,-2.40625,-1.4140625,3.9375,3.546875,-1.84375,0.734375,-0.78515625,4.90625,1.2734375,0.1689453125,-5.0625,-2.9375,-4.375,3.796875,2.453125,1.4609375,0.16796875,-1.2109375,0.291015625,-3.859375,-1.015625,-4.0625,4.3125,4.375,-4.75,0.62890625,-5.21875,-17.5,-6.3125,-1.7421875,-2.65625,-2.5625,-6.375,-2.03125,-2.40625,-2.75,3.28125,-0.69921875,-2.234375,5.09375,0.58984375,0.4453125,-3.34375,2.671875,6.125,3.9375,2.8125,-0.9296875,1.109375,2.46875,-0.53125,3.1875,-5.96875,6.21875,1.1640625,5,4.71875,1.578125,-5.53125,4.9375,1.8046875,-2.046875,-5.34375,0.77734375,-1.359375,-0.52734375,2.46875,-3.84375,1.875,-3.96875,-2.046875,0.5078125,-6.3125,-0.0216064453125,2.96875,-1.1953125,3.140625,-0.283203125,1.140625,-0.59375,1.171875,0.396484375,3.890625,0.049072265625,-3.078125,0.65625,1.4765625,1.1796875,1.0625,-3.578125,0.71875,2.234375,2.96875,3.421875,1.5546875,6.84375,4.84375,3.921875,-0.1708984375,0.671875,-0.546875,1.0625,2.78125,6.15625,-0.00927734375,0.48046875,-0.81640625,-0.84765625,1.375,-1.328125,-7.9375,-3.65625,-3.375,-5.5,4.25,-0.91015625,0.77734375,2.21875,1.734375,5.5625,4.09375,0.8046875,3.109375,0.58203125,-3.25,2.109375,-0.90234375,-1.6796875,4.53125,1.3203125,3.890625,0.67578125,-2.40625,0.44921875,3.296875,-0.91796875,-1.421875,-1.546875,4.9375,-1.0234375,-2.296875,1.6796875,-0.19140625,1.2890625,-0.5234375,2.703125,5.71875,4.6875,-0.7578125,-3.046875,-2.25,-2.75,2.828125,0.5546875,-0.99609375,0.6015625,2.796875,-0.18359375,-1.171875,-0.30078125,1.0546875,-3.984375,-0.244140625,3.28125,-1.4921875,-2.9375,0.58984375,1.6796875,-2.453125,1.3515625,1.9453125,-1.125,1.0703125,1.578125,-2.390625,-0.96484375,2.4375,4.96875,0.1044921875,-1.6796875,-4.53125,-2.09375,0.25,0.6171875,-3.71875,2.59375,3.375,3.34375,-1.3125,3.015625,-1.234375,-1.8984375,3.1875,-3.515625,-2.71875,2.578125,-3.34375,0.26171875,3.328125,-2.34375,-1.09375,3.078125,-6.8125,3.71875,-3.625,6.15625,-1.015625,0.27734375,0.6640625,-1.8359375,2.890625,0.88671875,-1.3359375,-0.6484375,0.1142578125,0.56640625,-1.671875,1.234375,-1.3203125,-0.2041015625,6.34375,-4.53125,0.1435546875,-1.9609375,0.953125,-7.71875,-3.234375,3.390625,-1.4921875,-2.078125,2.3125,-0.171875,-4.75,3.875,-0.2158203125,1.6640625,-5.46875,-0.796875,2.875,1.546875,5,3.15625,-0.98828125,-3.046875,0.76953125,-4.4375,-1.7421875,-0.58203125,2.796875,-1.515625,-3.296875,3.5625,1.203125,-0.53125,0.2890625,0.5078125,1.8671875,1.171875,0.51171875,2.03125,3.546875,2.203125,-7.28125,-5.5625,-1.8515625,7.71875,1.7421875,-0.39453125,3.359375,-2.875,2.546875,-2.34375,0.46875,1.984375,1.2109375,3.171875,-0.208984375,-0.416015625,4.21875,-0.1728515625,3.46875,-2.625,-3.46875,-5.53125,-1.3828125,4.4375,-0.07666015625,1.5546875,0.94140625,2.9375,-1.140625,-3.21875,-0.291015625,6.625,1.9765625,-0.12890625,3.6875,0.10498046875,-4.5,-2.4375,0.11962890625,2.015625,-3.3125,-0.0654296875,1.203125,0.734375,2.390625,-3.203125,-5.375,-2.28125,2.09375,2.015625,1.4765625,-2.375,3.109375,-1.4765625,0.1416015625,4.28125,4.84375,-2.59375,-2.984375,-0.94140625,4.4375,4.03125,-1.8203125,0.1669921875,1.3984375,-2.359375,3.234375,2.3125,-0.361328125,-3.125,3.515625,-3.609375,-3.71875,-4.53125,4.03125,-2.34375,-0.259765625,-2.359375,-3.578125,-4.5,1.578125,-0.90234375,4.53125,3.21875,3.671875,-2.15625,2.484375,4.625,0.41796875,-0.369140625,1.265625,-1.6640625,-1.7578125,-0.458984375,-4.1875,1.65625,2.140625,-10.8125,-2.203125,3.921875,-1.9765625,2.875,-0.98046875,1.8984375,-0.6484375,-1.3828125,2.46875,-2.171875,4.25,3.359375,-0.84765625,-3.84375,3.578125,1.96875,0.2412109375,-0.28515625,3.703125,-3.15625,1.140625,1.296875,1.765625,-5.3125,-5.15625,-1.078125,-1.9453125,-0.384765625,-0.9765625,-2.171875,1.3203125,4.03125,0.48828125,-4.125,-0.412109375,-3.3125,-0.9375,-2.9375,2.34375,-1.578125,4.75,-1.9765625,1.046875,3.28125,-4.78125,-2.96875,-3.484375,2.140625,2.71875,1.15625,-1.1640625,-3.375,2.84375,1.28125,-3.875,0.8671875,2.453125,0.8515625,-1.953125,1.3828125,-3.234375,2.875,0.01312255859375,-2.140625,-2.640625,-1.9375,1.8359375,1.6640625,3.203125,-0.703125,0.06005859375,-2.6875,4.25,1.1640625,-0.9453125,1.4609375,0.65625,-0.54296875,-3.6875,3.0625,1,1.734375,2.703125,3.578125,-4.90625,0.76953125,3.1875,1.28125,-2.546875,-3.4375,-1.7109375,3.1875,0.65625,0.71484375,-2.140625,0.412109375,-1.015625,-0.05078125,2.703125,-1.4765625,5.34375,-3.90625,3.265625,2.75,1.0625,5.9375,-3.015625,2.203125,2.578125,5.34375,2.28125,-0.62890625,-2.703125,-0.85546875,-0.279296875,-0.9609375,-1.6875,-8.75,4.53125,-3.265625,2.359375,-2.0625,2.75,0.796875,0.43359375,1.1640625,-1.0546875,-1.3828125,-0.5703125,-0.46875,-1.8671875,-4.53125,-0.466796875,2.125,6.71875,5.59375,6.71875,2.203125,0.19921875,2.15625,-3.59375,0.78515625,-4.1875,2.75,-2.515625,0.32421875,1.40625,-1.7265625,4.84375,-6.53125,-5.21875,-5.1875,-1.859375,2.5625,3.0625,-2.71875,-2.8125,7.21875,1.453125,2.828125,4.09375,-1.4375,-1.796875,1.9921875,-2.359375,4.03125,1.484375,1.671875,-4.96875,5.78125,3.890625,-2.140625,4.40625,1.6015625,-0.71875,-3.5,4.375,-0.609375,1.3125,2.234375,2.828125,3,0.490234375,2.6875,4.5625,1.0625,-4.0625,1.953125,0.3828125,-4.6875,-4.6875,2.78125,-3.859375,-0.8359375,2.34375,2.515625,0.0703125,0.40625,0.79296875,2.34375,4.625,-8.0625,2.484375,-4.4375,1.6796875,-4.53125,-1.03125,-6.71875,1.3046875,3.03125,1.1640625,-0.67578125,-2.0625,1.0625,2.421875,-0.6796875,-3.390625,5.53125,2.515625,1.21875,-0.89453125,-0.2255859375,1.5703125,-1.3984375,1.3359375,-5.59375,1.265625,-0.431640625,-2.546875,-3.1875,-0.0291748046875,2.90625,-4.5,0.5,-3.546875,2.890625,0.09423828125,4.5625,4.125,-4.28125,4.15625,0.040283203125,1.9765625,2.53125,2.421875,2.421875,2.09375,-1.4765625,1.6953125,1.6953125,-4.46875,3.015625,-2.96875,0.421875,1.4609375,-1.6953125,0.283203125,-5.09375,2.09375,1.2890625,2.6875,2.078125,-4.6875,0.3828125,1.7265625,-4.09375,0.7578125,0.98046875,3.515625,-3.25,-2.921875,-0.37109375,4.28125,0.1748046875,2.625,1.6484375,-0.107421875,-3.0625,-1.734375,-1.5625,3.921875,-1.1640625,5.78125,0.1962890625,-5.75,-2.640625,4.78125,-1.546875,2.75,-1.4921875,-1.40625,2.734375,-1.0859375,-0.09814453125,-2.984375,-2,-0.95703125,-3.265625,0.26953125,-1.0234375,-2.078125,-0.9765625,-6.375,-2.984375,-1.734375,7.40625,-1.296875,-6.6875,-1.15625,-0.25390625,0.68359375,-4.34375,-4.03125,4,5.40625,6.3125,6.15625,-0.78125,-2.296875,0.6171875,18.625,-4.375,-5.65625,-0.1494140625,-1.859375,5.21875,6.46875,2.96875,0.416015625,0.9453125,0.84765625,2.421875,0.73828125,-1.15625,-4.21875,-1.5546875,2.625,2.09375,0.10400390625,-3.984375,-1.4609375,-2.53125,1.2109375,3.703125,0.953125,3.21875,0.765625,0.197265625,0.44140625,-2.203125,-0.96484375,-1.8671875,1.375,-1.390625,3.71875,-3.234375,4.65625,2.8125,-1.7109375,0.388671875,-1.3984375,-2.015625,4.15625,-4.0625,-0.7890625,1.0234375,1.3125,0.07080078125,0.064453125,0.8515625,-4.90625,-0.65234375,-5.84375,2.96875,1.5546875,-2.328125,2.5625,-6.4375,-0.69921875,-1.8984375,-1.2265625,1.296875,0.013671875,-1.6953125,1.5703125,-2.515625,-2.78125,2.84375,2.046875,-1.7734375,-8.1875,-3.21875,2.9375,3.21875,1.96875,-2.5625,2.9375,2.34375,3.46875,-2.34375,-0.7109375,0.318359375,-2.515625,-0.48828125,3.03125,0.1728515625,-4.625,1.0078125,1.1015625,-2.3125,7.46875,-7.75,3.140625,0.703125,-4,-4.40625,3.390625,6.1875,-1.1953125,1.1796875,5.375,-0.1787109375,2.265625,0.365234375,3.015625,-1.65625,1.140625,-3.609375,0.173828125,3.421875,0.4296875,3.703125,-0.1025390625,-0.93359375,1.359375,3.578125,-0.953125,-5.53125,-0.32421875,-2.703125,3.15625,-0.8984375,-2.046875,0.74609375,-9.4375,-2.125,-5.09375,-2.96875,2.484375,-2.328125,0.59375,5.46875,-0.001007080078125,-2.1875,-3.984375,-0.451171875,3.84375,4.8125,1.765625,-2.046875,-6.1875,2.8125,0.314453125,-5.90625,-3.03125,0.2138671875,-5.0625,4.625,1.7265625,2.40625,-4.625,3.140625,1.6796875,-0.91015625,-2.78125,-0.1728515625,-0.2109375,-2.78125,-3.515625,-1.0078125,-0.400390625,1.046875,1.890625,-2.15625,-0.8359375,-0.74609375,-1.4140625,-0.8828125,-3.609375,3.65625,1.765625,-7.03125,-3.171875,-2.765625,4.1875,-3.875,-0.41796875,6.75,0.52734375,1.625,1.8984375,1.8828125,-1.078125,-5.625,-1.2265625,7.5,-5.75,0.1376953125,-1.140625,1.09375,0.6171875,-3.328125,-2.484375,2.71875,0.44140625,-0.369140625,-0.5,-1.9765625,-2.46875,-2.796875,-3.40625,1.640625,1.453125,-0.56640625,3.96875,-1.1796875,0.9765625,-1.71875,0.58984375,-0.69140625,-5.71875,2.921875,0.76953125,-2.234375,-2.71875,3.859375,3.1875,2.375,-2.03125,0.54296875,4,-3.109375,-5.0625,-1,1.4765625,3.484375,-5.09375,1.921875,-2.453125,3.328125,2.71875,1.3515625,-2.53125,0.81640625,-3.734375,-4.75,-4.0625,-0.765625,-1.0859375,-0.369140625,3.734375,-3.453125,3.859375,1.4609375,-3.109375,1.328125,3.65625,-3.15625,-2.421875,-0.5625,0.84375,1.0234375,4.90625,-0.080078125,-2.984375,-0.21875,-3.84375,-0.435546875,-2.71875,2.15625,5.84375,-2.15625,2.484375,-4.875,-1.125,1.3125,1.875,-3.234375,2.484375,3.265625,-2.21875,2.640625,-0.46875,-2.234375,0.72265625,0.7578125,0.68359375,-3.390625,1.265625,-0.357421875,-2.484375,-2.203125,1.921875,-1.9375,1.03125,-1.234375,1.0234375,-2.890625,2.203125,5.78125,1.640625,6.65625,-4.9375,-0.2890625,-5.09375,1.3671875,-2.171875,-2.78125,1.0390625,1.4375,2.53125,3,1.0234375,-7.34375,-2.21875,1.296875,0.6015625,2.546875,-0.6484375,-2.1875,-2.875,-0.5625,2.390625,3.25,-1.453125,-0.72265625,-1.921875,-1.03125,-0.1142578125,-4.8125,-1.4140625,2.375,-1.3125,-0.1826171875,0.90234375,-0.7890625,-0.443359375,2.25,-4.125,1.8984375,3.8125,1.3828125,-1.2578125,-0.490234375,2.359375,5.375,-2.5625,-5.5,1.4921875,3.59375,0.765625,0.54296875,2.125,3.140625,-0.322265625,-0.5703125,-4.65625,3.21875,1.9140625,-9.4375,3.078125,-4.84375,0.40625,-2.859375,-3.921875,-1.3671875,5.90625,1.875,1.6953125,3.625,3.046875,-0.8984375,3.109375,-2.59375,-1,3.390625,3.796875,-4.59375,-0.6875,3.421875,-0.1484375,-5,-1.8671875,2.859375,-1.4921875,0.19921875,3.0625,6.84375,0.396484375,-0.84765625,-3.5625,-1.21875,-4.78125,-2.078125,3.359375,0.9375,0.62109375,1.34375,-2.734375,0.419921875,-1.3359375,-4.75,-2.90625,0.7890625,0.34765625,1.296875,-1.125,-0.765625,-3.65625,3.34375,2.9375,-4.5625,-3.34375,1.2578125,-3.515625,-1.1875,-1.9453125,0.40625,-0.26171875,-1.9296875,2.921875,2.03125,2.15625,-2.890625,-3.640625,4.90625,4.625,-0.453125,-3.140625,-5.6875,3.03125,1.265625,0.5,0.275390625,0.3671875,0.16015625,-4.59375,-5.25,-2.3125,2.6875,0.06591796875,5.8125,-1.984375,0.8125,1.703125,-1.9140625,-1.703125,4.4375,3.109375,0.2275390625,1.1953125,-1.0546875,-1.4453125,3.609375,6.375,-3.90625,-1.265625,0.3046875,-0.64453125,-3.9375,0.58984375,1.0703125,-2.46875,-6.0625,3.65625,-0.255859375,4.1875,0.032958984375,-4.75,2.625,-0.5859375,3.734375,2.734375,0.98046875,-0.298828125,-7.71875,-3,-0.419921875,-3.921875,0.494140625,0.45703125,-3.765625,0.515625,8.1875,-1.859375,2.25,-2.5,-2.625,3.203125,0.0194091796875,-2.46875,-0.4765625,-3.859375,3.40625,1.84375,-1.015625,-6.34375,-0.44140625,-1.7578125,0.0712890625,-1.25,1.4296875,-2.453125,-1.8359375,-1.03125,5.03125,2.390625,3.703125,0.765625,1.3828125,-0.46484375,-1.7421875,2.203125,1.46875,0.03125,-3.578125,0.373046875,-0.75390625,-0.83203125,0.265625,-1.6015625,-1.6171875,0.85546875,1.34375,2.03125,0.87890625,2.6875,-4.15625,1.7734375,-1.46875,2.140625,-0.5625,-1.796875,-1.1953125,2.375,1.4765625,3.734375,2.171875,-3.078125,-0.52734375,-2.375,-2.5,-0.9296875,0.5,0.6875,-1.3046875,-4.3125,-1.71875,-3.40625,-0.96875,-4.125,-1.1015625,2.09375,-0.1767578125,0.94140625,1.2734375,1.4375,-0.59375,0.83984375,0.2890625,0.59765625,-1.0546875,1.8359375,0.49609375,0.97265625,3.296875,-1.3515625,-1.140625,-2.96875,0.06884765625,2.609375,3.40625,2.28125,-1.8671875,-2.734375,3.03125,0.55078125,-0.9921875,-3.640625,-3.625,-2.640625,-2.15625,-0.140625,0.7578125,2.34375,-1.3828125,1.171875,-0.5078125,-1.625,-2.34375,-2.140625,-3.984375,-0.027099609375,-1.3671875,-2.734375,-2.765625,1.84375,1.1875,0.23828125,0.88671875,2.125,1.6796875,-2.296875,2.015625,0.61328125,-0.73828125,-2.703125,0.82421875,3.015625,0.640625,0.73046875,-3.3125,-1.0859375,-3.390625,-2,-0.80078125,4.78125,1.109375,-2.4375,1.9609375,2.59375,-0.515625,2.25,-2.671875,-0.28125,-0.7734375,1.1796875,0.5703125,-0.259765625,2.84375,2.78125,-1.6796875,-0.2333984375,-3.78125,-1.421875,1.2890625,-1.875,-0.010498046875,-0.11572265625,-1.1875,-1.1328125,0.041015625,2.578125,0.419921875,0.5,-1.4453125,-0.609375,-2.65625,0.921875,-1.15625,-0.474609375,-1.1953125,-1.4140625,3.71875,2.984375,1.3984375,2.875,2.28125,-1.25,-2.71875,-2.1875,-0.345703125,-1.453125,2.328125,-0.359375,-2.4375,-0.88671875,-0.259765625,-0.5625,0.55078125,0.2099609375,-1.7578125,1.4609375,-4.15625,-1.046875,0.2353515625,0.1513671875,-2.921875,1.0703125,-1.015625,-1.140625,-0.408203125,2.15625,-0.365234375,-0.58984375,2.5,-1.1875,-0.11279296875,2.078125,0.62890625,-0.93359375,0.37109375,4.59375,0.275390625,0.65234375,0.54296875,-1.4921875,0.953125,-0.8046875,0.6796875,-0.890625,-1.5625,-3.265625,1.8125,-3.921875,0.26953125,-1.109375,-0.8125,3.015625,0.9609375,-2.734375,0.55078125,-1.7421875,3.40625,-0.75,2.84375,0.06005859375,-0.1796875,-1.6875,-1.0703125,-1.015625,2.203125,0.28515625,2.53125,-1.5078125,1.5703125,-0.91796875,1.5234375,4.3125,0.400390625,-1.1875,0.5078125,0.061767578125,2.40625,3.34375,0.328125,0.059814453125,-1.375,-0.54296875,-1.03125,-1.8046875,1.515625,-0.65625,-0.3359375,-3.078125,-1.3671875,2.796875,3.015625,-0.359375,2.375,3.703125,1.03125,0.0037994384765625,2.390625,0.12158203125,-2.828125,-3.59375,-0.7421875,-0.89453125,0.275390625,0.6953125,-0.53515625,-1.6171875,0.8671875,1.1484375,0.00433349609375,3.953125,2.546875,-0.06787109375,-1.484375,-0.7421875,-1.15625,2.78125,-1.078125,1.78125,0.494140625,-1.59375,1.28125,1.6328125,-1.9375,0.291015625,0.2734375,-0.359375,0.21875,-1.296875,0.88671875,-4.5625,-0.78125,0.99609375,-3.703125,-3.03125,-0.031982421875,3.625,-5.25,0.34375,2.6875,0.8203125,0.80859375,1.078125,2.765625,0.1357421875,2.640625,0.7109375,-2.96875,-4,1.0859375,-0.462890625,1.1953125,-0.40625,0.455078125,5.75,-2.140625,-0.9921875,-0.75390625,-1.515625,0.77734375,1.21875,-0.4140625,-4.15625,-2.75,0.039306640625,-0.1953125,-0.15234375,0.6171875,1.78125,-0.3515625,2.484375,-0.06103515625,1.25,-0.384765625,0.8828125,0.80859375,-0.796875,0.46875,-3.90625,-0.86328125,2.875,-3.03125,-0.79296875,-1.8359375,-0.271484375,2.3125,-0.17578125,-2.21875,-2.015625,-1.90625,3.25,2.140625,-2.265625,-1.625,-0.33203125,-0.2138671875,-0.1337890625,0.314453125,-3.4375,-3.1875,0.61328125,-0.5859375,-1.046875,-0.11328125,0.46875,-3.21875,-0.1630859375,-0.1572265625,-1.5234375,-1.6875,0.87109375,2.0625,-0.89453125,0.2412109375,-2.8125,2.703125,0.4765625,0.314453125,0.69140625,0.470703125,-0.671875,2.65625,-2.25,-0.87109375,0.427734375,-2.578125,3.125,-2.59375,-1.6171875,2.140625,-0.91015625,-0.84765625,-1.015625,2.46875,1.1875,1.796875,2.640625,1.203125,-2.015625,-0.318359375,1.0625,0.291015625,0.15625,2.21875,0.05810546875,-1.6171875,-2.390625,1.2578125,-1.1953125,-0.310546875,-0.2353515625,2.703125,-1.90625,1.84375,0.89453125,-1.7734375,1.609375,2.421875,-1.7578125,2.4375,4.5625,-1.984375,0.6328125,-3.96875,-0.78125,-0.75,0.95703125,-1.8828125,-1.2421875,4.53125,2.734375,-3.4375,1.21875,-0.9296875,-1.3984375,0.302734375,-1.1953125,-1.1796875,-0.04541015625,-2.1875,3.125,0.4375,-0.46484375,-0.345703125,-0.71875,-0.13671875,-0.2353515625,0.2353515625,1.578125,1.390625,1.5,-2.96875,2.640625,-0.125,1.7734375,0.5546875,-2.234375,1.2578125,-3.3125,-0.322265625,0.63671875,1.96875,0.359375,0.40234375,-1.53125,-0.7734375,-3.625,0.734375,-0.89453125,1.8125,2.0625,0.0869140625,-1.578125,0.6484375,1.21875,1.1796875,-0.796875,-0.130859375,-1.0078125,-2.4375,1.3125,1.4140625,2.109375,-1.9765625,-0.77734375,-1.3359375,0.25,1.203125,-0.162109375,-0.375,-0.9453125,-3.546875,-3.015625,-2.21875,-1.796875,-2.3125,-1.203125,-0.6953125,-0.34375,-0.91796875,-2.125,4.5,-2.359375,1.3046875,0.51953125,3.59375,-1.0703125,1.9140625,-4.03125,-1.703125,-2.03125,-0.11865234375,1.8203125,-0.166015625,1.8359375,1.59375,-0.380859375,-1.796875,0.1376953125,1.953125,0.85546875,0.1416015625,0.34765625,0.119140625,0.61328125,-0.251953125]],"391204ca04c85d9757240aef973fb259":[153.36848413210018,[-3.453125,1.7890625,0.392578125,0.95703125,-0.9765625,2.453125,-3.921875,-1.234375,-3.046875,2.328125,0.7578125,-2.5625,1.5078125,3.4375,2.71875,0.8828125,1.65625,-2.71875,-0.70703125,-5.0625,2.4375,7.0625,1.0234375,-6.71875,2.09375,-4.0625,-1.5859375,4.0625,1.9921875,-2.703125,5.5625,-4.59375,-3.15625,-5.625,-1.9609375,-2.5625,-5.6875,-3.046875,6.53125,5,-5.28125,0.86328125,-1.1953125,2.328125,-6.6875,-1.2421875,-0.82421875,0.6015625,-4.875,-3.84375,-3.78125,-5.375,7.25,-1.140625,5.15625,-3.984375,-5.125,3.40625,-5.53125,-4.40625,3.203125,-5.03125,1.578125,2.21875,0.1650390625,3.859375,-4.25,1.4453125,-3.703125,-3.09375,-3.765625,-1.3828125,1.828125,-2.03125,4.90625,4.71875,2.03125,2.171875,-2.015625,6.03125,-4.9375,-0.7421875,2.546875,1.0546875,5.96875,2.109375,-2.046875,2.25,-1.109375,0.5859375,-1.578125,-0.4921875,-1.46875,-0.361328125,3.25,0.2255859375,-3.046875,-3.359375,-5.8125,2.96875,-1.0859375,0.054443359375,1.734375,-4.5625,1.2734375,-5.96875,-3.890625,-4.90625,-1.359375,-1.625,1.9453125,-0.1533203125,4.25,-2.21875,2.59375,-0.7421875,0.546875,-2.140625,-8.625,-1.953125,1.796875,-6.5,0.447265625,-1.5546875,9.875,-0.416015625,-2.734375,4.90625,5.25,3.359375,5.5,2.640625,3.34375,-1.953125,-7.6875,0.7109375,-5.6875,1.0546875,5.6875,5.375,-6.25,-1.3515625,-0.030517578125,-5.0625,2.5,2.453125,-6.8125,1.8359375,2.03125,-1.6640625,0.734375,0.6640625,-1.1953125,4,-0.4296875,-4.65625,2.0625,0.7109375,-1.234375,-1.5078125,0.146484375,0.78515625,-0.1884765625,1.703125,1.421875,-2.171875,-2.46875,2.171875,0.177734375,2.65625,0.54296875,16.25,1.1953125,-0.07958984375,2.640625,7.5,-4.625,8.125,1.828125,3.359375,-3.078125,-0.07568359375,-6.3125,6.875,0.953125,0.55859375,0.04150390625,-3.984375,4.09375,-3.21875,3.65625,3.234375,1.1328125,0.44140625,-2.625,-0.68359375,5.46875,-0.189453125,0.5703125,1.7890625,-4.6875,-8.0625,0.263671875,0.04638671875,-1.8359375,-3.390625,-2.390625,4.09375,-4,0.75390625,4.625,1.8046875,1.3359375,-0.765625,7.9375,0.451171875,5.09375,0.76171875,5.03125,-0.78125,2.5,6.5,0.267578125,1.640625,-1.2109375,-1.3984375,5.9375,1.3515625,1.7890625,5.28125,-1.6328125,0.96875,5.375,-2.65625,-2.28125,-5.75,-4.21875,0.423828125,-1.84375,0.87109375,-0.8828125,-2.453125,-0.58984375,2.9375,2.03125,-1.625,-3.375,1.53125,-4.5625,-7.75,2.953125,4.8125,-3.4375,-3.625,1.6015625,6.875,0.59375,0.07861328125,0.3359375,-2.890625,4.25,-1.5,-4.34375,3.734375,-2.375,0.1962890625,4.28125,2.671875,3.34375,4.9375,1.0390625,-3.953125,-0.66796875,1.2109375,-4.78125,6.78125,-1.4453125,-3.515625,3.09375,-2.328125,-5.125,-1.984375,3.359375,-3.515625,2.53125,-2.3125,-3.671875,5,-3.890625,10.1875,5.96875,-1.1640625,0.2353515625,-0.029541015625,-5.59375,-3.390625,-2.859375,2.71875,-7.5,0.87890625,4.40625,4.46875,1.8125,-1.7109375,-4.8125,1.125,1.203125,-1.1640625,0.984375,1.1328125,-2.25,2.03125,3.6875,-1.328125,-0.0146484375,-3.421875,-3.34375,2.59375,2.125,-1.84375,-3.09375,-3.71875,-0.57421875,-4.96875,-3.84375,-5.625,2.171875,0.7890625,1.4609375,-2.734375,3.296875,2.09375,-5.75,-4.125,8.125,-0.0037078857421875,1.453125,6.625,-3.859375,0.328125,-4.25,-4.125,7.375,-2.78125,-1.765625,0.8828125,2.75,-2.359375,2.21875,-3.75,5,-0.2470703125,2.78125,5,4.3125,-1.1015625,2.265625,-0.1591796875,0.734375,-3.921875,5.75,0.59375,3.28125,-1.4375,-2.734375,-3.46875,1.3046875,4.78125,1.1875,-2.0625,0.2177734375,-0.80859375,4.53125,0.166015625,3.703125,4.625,-1.9921875,0.4375,-4.15625,-0.1005859375,-0.2001953125,1.609375,-2.78125,-0.875,4.90625,2.15625,-1.4375,2.234375,1.4140625,-2.09375,-3,-0.8359375,-1.2109375,1.90625,0.10498046875,-1.421875,-3.546875,3.125,-3.109375,-1.734375,3.25,-2.265625,-2.015625,1.3828125,-2.53125,-0.78125,-1.9453125,-9.1875,1.859375,-0.35546875,-1.3828125,0.625,2.296875,-3.546875,1.2109375,6.25,-2.140625,-1.2109375,-5.4375,2.453125,-7.5625,3.125,1.3984375,0.3984375,0.515625,1.578125,3.53125,4.65625,1.390625,1.8828125,0.515625,1.3203125,-6.15625,-0.462890625,-2.84375,-2.96875,0.498046875,-3.296875,0.6171875,1.4375,3.90625,-3.3125,4.5625,5.8125,-5.53125,-2.859375,5.0625,1.5234375,-0.76953125,-0.62890625,1.5,0.2001953125,-0.9765625,2.5,1.359375,-0.49609375,-5.65625,2.515625,7.46875,-0.67578125,-0.408203125,-1.7421875,1.2578125,2.5,-1.125,-4.28125,-0.2265625,2.140625,4.3125,-4.4375,-8.1875,2.625,-0.5546875,-0.451171875,2.46875,3.828125,1.671875,-0.99609375,-1.515625,-5.09375,-1.59375,-3.984375,1.8828125,-1.234375,-1.078125,1.1328125,-0.83984375,4.96875,3.28125,-0.30078125,-2.4375,-2,-0.2216796875,-4.6875,6.125,4.34375,11.3125,0.416015625,1.6171875,3.0625,-8.6875,1.2265625,-1.75,-1.859375,0.40234375,3.734375,4.375,-4.03125,-2.265625,-0.92578125,3.328125,-3.078125,-1.671875,1.0546875,-0.00335693359375,-6.09375,-0.0830078125,1.625,2.734375,-3.359375,-0.703125,3.703125,0.98828125,2.375,0.74609375,-2.15625,-1.015625,-3.125,0.392578125,1.1015625,2.296875,0.1328125,-2.109375,-5.46875,-2.5625,-2.59375,-1.171875,-2.59375,1.0859375,5.25,3.46875,0.1474609375,-8,-2.328125,-0.138671875,-0.5546875,0.0830078125,-1.8984375,3.875,-0.98828125,0.318359375,1.8359375,-4.03125,-1.609375,2.46875,-2.515625,-3.875,-1.203125,1.5625,-2.5625,0.67578125,-0.890625,5.4375,3.484375,0.5,-1.3203125,2.359375,3.96875,2.53125,-0.75390625,3.328125,5.53125,-0.2099609375,-2.5,-3.171875,3.875,-6.25,-6.3125,-4.9375,1.875,5.59375,-5.15625,1.703125,-1.7421875,2.9375,-3.21875,4.625,-13.25,0.6640625,3.234375,-2.953125,-1.0703125,-1.015625,4.34375,-2.65625,-2.28125,1.5703125,-1.5703125,1.609375,2.578125,-1.203125,2.625,4.40625,2.609375,-1.3203125,2.921875,-3.234375,-2.796875,2.640625,-1.953125,0.92578125,0.59375,2.359375,-3.375,1.4375,2.625,-6.65625,1.4140625,4.0625,1.453125,-4.09375,5,-1.8359375,3.59375,-5.21875,3.625,-1.875,-8.25,0.10009765625,0.365234375,-0.90234375,-0.7890625,-2.6875,-0.578125,2.515625,3.796875,-3,-1.09375,1.0390625,-0.205078125,1.6796875,3.96875,2.5,1.84375,-0.87109375,2.6875,-2.578125,3.578125,-0.466796875,-2.328125,1.4375,0.62890625,2.34375,-0.9375,0.8828125,1.9140625,-0.8046875,-1.2421875,0.8203125,1.3828125,-3.9375,-3.515625,0.60546875,-4.875,6.40625,-0.09814453125,0.357421875,-0.359375,2.9375,2.421875,0.484375,-0.91015625,-0.68359375,4.96875,2.6875,-1.953125,1.8984375,-4.1875,-2.6875,-0.2890625,-3.984375,-0.3203125,1.359375,2.71875,0.357421875,-1.109375,-0.359375,1.265625,-9.0625,-1.5078125,4.15625,-1.78125,3.109375,-3.609375,3.3125,0.70703125,-2.96875,0.55859375,-0.08251953125,-3.171875,0.255859375,0.306640625,-5.96875,1.046875,6.15625,-3.1875,1,6.5625,-0.61328125,1.0390625,-2.296875,4.4375,-4.0625,-0.88671875,2.515625,-3.5,2.265625,-2.15625,2.203125,-4.875,3.890625,2.921875,0.439453125,-4.96875,-2.546875,-2.09375,-1.7421875,-5.875,3.703125,3.109375,-1.28125,-3.03125,3.75,6.25,-0.9453125,-0.84375,-0.1845703125,3.4375,-1.890625,1.0078125,-0.1640625,-2.9375,1.53125,0.412109375,-1.859375,2.703125,0.392578125,0.1162109375,3.265625,0.365234375,-4,-5.125,4.5,2.296875,2.390625,-1.125,1.984375,-4.375,1.015625,1.59375,-3.71875,-1.0546875,5.25,1.3359375,-2.5625,-1.375,3.28125,-0.48828125,1.390625,-8.8125,-4.75,0.023681640625,2.03125,1.328125,-2.421875,6.53125,-1.1640625,-1.0234375,-1.6640625,2.640625,1.6484375,-1.5546875,-0.193359375,0.76953125,5.875,1.140625,2.703125,-1.15625,-2.53125,-3.828125,-0.96875,0.5,3.09375,1.296875,-1.1640625,-4.90625,0.5625,-0.16796875,-1.703125,2.875,6.78125,0.9921875,-2.25,-3.25,2.140625,-0.6015625,0.11669921875,-0.6484375,9.6875,-1.375,-2.9375,4.71875,0.81640625,0.341796875,-0.7109375,-9.25,-2.296875,-1.9296875,7.5,-2.84375,-1.0234375,-4.0625,-0.1376953125,6.65625,4.15625,2.71875,3.125,2.921875,2.046875,-0.263671875,-0.5390625,-5.34375,-1.578125,-0.60546875,-0.490234375,-0.2177734375,0.45703125,5.875,5.25,-0.828125,-2.125,-3.4375,3.84375,0.76953125,-1.3515625,1.8203125,-0.08251953125,1.4375,0.8203125,3.390625,-0.486328125,-0.8515625,5.75,6.1875,-4.28125,3.625,-2.515625,1.0390625,-1.9453125,-2.21875,-0.87890625,0.60546875,2.484375,-1.5,-2.6875,-0.79296875,-2.296875,4.875,-2.734375,-1.1953125,5.9375,1.3046875,0.72265625,-0.486328125,0.458984375,3.09375,0.044677734375,-1.8828125,-6.0625,-5.875,-1.4375,1.609375,-1.984375,1.4765625,1.0234375,-1.609375,-0.3984375,-4.90625,-2.140625,-3.9375,-1.21875,3.359375,-6.4375,-2.15625,-1.84375,-12.625,-7.75,-0.85546875,0.50390625,0.51171875,-8.0625,2.375,-4.28125,-5.53125,-0.345703125,-0.48828125,-1.0703125,4.71875,-0.66796875,-0.1435546875,-5.53125,1.359375,4.40625,5.5,5,0.0028839111328125,0.462890625,2.484375,-2.875,4.75,-2.296875,6.125,-1.1171875,4,1.609375,4.96875,-6.375,4.84375,2.234375,-0.0634765625,-7.59375,-1.7734375,-2.53125,2.640625,-2.15625,-2.1875,2.859375,-3.25,-3.1875,-0.3359375,-6.34375,-2.234375,5.28125,0.0205078125,1.8828125,-2.921875,2.65625,-2.125,-0.376953125,2.46875,2.28125,-1.9765625,-4.1875,0.984375,1.484375,2.5625,0.84765625,-8.375,-2.078125,1.6015625,-0.041748046875,4.34375,0.1806640625,8.8125,0.58984375,3.6875,-2.125,2,-1.484375,0.1806640625,0.375,1.75,2.28125,0.0062255859375,2,-2.625,0.435546875,-2.375,0.1142578125,-0.404296875,-2.421875,-2.15625,1.1171875,-2.59375,1.7734375,1.4765625,3.640625,4.5,5.40625,-0.478515625,2.1875,-0.9453125,-0.470703125,-0.875,-5.9375,-2.015625,5.25,2.6875,3.140625,-0.76953125,-4.59375,-2.0625,0.5546875,3.203125,0.9609375,2.296875,3.8125,-2.09375,-1.4609375,-1.2265625,-0.06884765625,2.03125,-0.427734375,1.9453125,4.03125,7,-4.4375,-4.75,-1.6171875,-1.421875,0.0751953125,0.330078125,-0.91796875,3.4375,1.234375,-3.984375,-0.08056640625,-0.875,2.234375,-5.15625,-1.09375,4.25,-0.1650390625,-3.328125,3.421875,2.21875,-2.234375,0.8671875,1.828125,-1.734375,0.515625,0.7109375,-1.8515625,2.5,1.7578125,0.015625,-5.8125,-4.5,-4.09375,1.578125,-0.07177734375,0.33203125,0.38671875,-0.2392578125,2.375,4.375,-2.796875,2.859375,-0.12060546875,-1.3984375,2.984375,-4,-6.9375,-0.2373046875,-2.625,-1.2265625,2.515625,-1.1015625,-1.3515625,3.625,-3.453125,4.59375,-5.4375,6,-3.65625,-5.1875,2.28125,-6.15625,4.3125,-5.25,-0.1923828125,0.259765625,-1.8828125,3.703125,-3,-0.5234375,1,-0.78515625,4.1875,-0.54296875,-1.2421875,0.1865234375,4.40625,-3.859375,-4.96875,0.4296875,-3.578125,-1.8203125,3.46875,1.3125,-0.1728515625,1.6171875,-2.171875,0.84765625,-2.4375,1.453125,3.609375,-0.609375,4.6875,0.45703125,-2.71875,-4.9375,1.3671875,-4.59375,-2.375,-0.3984375,4.4375,-0.5703125,-0.65234375,0.5078125,-1.4375,2.78125,3.296875,0.7265625,5.03125,3.96875,-2.484375,-0.439453125,1.75,3.453125,-3.078125,-0.59375,-2.71875,5.09375,5.28125,-1.6171875,1.9140625,-2.859375,0.69921875,0.482421875,-0.1171875,-0.326171875,0.73046875,3.265625,0.6640625,-1.3046875,3.6875,0.08642578125,4.09375,-5.03125,-2.0625,-5.0625,2.0625,4.21875,0.69140625,-0.21484375,4.5,2.109375,-2.578125,-2.421875,-0.216796875,8.25,1.046875,3.234375,2.375,1.34375,-2.25,-0.9453125,-0.138671875,4.28125,-0.83203125,-2.625,4.5625,0.059326171875,4.25,-3.125,-5.59375,-4.0625,-0.3671875,3.015625,-0.15234375,-2.34375,2.328125,-3.96875,3,0.255859375,2.03125,-4.375,-2.40625,-3.109375,4.875,-0.482421875,-4.25,3,3.046875,0.26171875,1.328125,3.796875,1.7734375,-1.09375,3.046875,0.3046875,-5.09375,-5.28125,0.9609375,-0.5390625,0.490234375,-4.125,-3.78125,-3.453125,1.546875,-1.8984375,5.25,0.98046875,2.828125,-3.625,4.90625,4.78125,1.2109375,-1.3359375,0.39453125,0.07080078125,0.271484375,-0.349609375,-4.59375,-0.98828125,1.6875,-8.75,-1.109375,5.75,-1.921875,4.5625,-1.453125,3.46875,-1.3125,-1.7734375,1.71875,-1.4765625,4.28125,3.234375,0.828125,-5.84375,2.953125,2.6875,2.515625,-2.40625,-1.015625,-0.3828125,2.28125,0.66015625,3.125,-3.421875,-5.34375,-1.1171875,-0.31640625,-5.4375,-2.125,-3.015625,0.53125,0.66015625,0.8828125,-4.53125,-0.6484375,-5.0625,5.15625,-2.65625,-0.8125,-5.59375,1.6015625,-3.640625,2.671875,1.03125,-3.90625,-1.4765625,1.4609375,2.734375,4.90625,0.76171875,-2.640625,-5,-0.1298828125,-5.4375,-6.5625,-2.375,0.158203125,2.203125,-2.796875,3.25,-0.56640625,-0.08544921875,0.470703125,-2.71875,-1.2421875,-0.890625,0.26171875,4.4375,3.25,-1.9765625,0.3828125,-1.3203125,-0.94921875,2.375,0.058837890625,3.890625,-0.6328125,1.8828125,-2.390625,5.96875,2.453125,1.09375,-0.056396484375,3.5625,-3.90625,2.359375,2.203125,4.6875,-0.2734375,-1.171875,-0.06982421875,2.625,-2.0625,2.609375,-2.828125,0.10546875,1.9765625,-2.1875,3.046875,3.140625,1.015625,-3.125,0.84765625,4,2.296875,4.96875,2.953125,1.4453125,1.6953125,-2.5625,4.9375,-1.8984375,-5.09375,-0.6328125,2.703125,-1.9296875,-1.828125,-8.4375,0.3671875,-1.53125,1.6328125,3.234375,3.171875,0.78515625,0.68359375,-2.1875,3.078125,-4.15625,-4.375,-1.265625,1.6015625,-5,1.5078125,0.095703125,2.203125,4.34375,4.5625,2.0625,-0.74609375,0.1494140625,-1.6171875,-0.96484375,0.1044921875,5.125,-2.109375,-1.4921875,3.734375,-0.734375,3.515625,-8.6875,-4.21875,-6.5625,-1.0859375,0.283203125,0.62890625,-1.515625,-1.484375,5.71875,3.6875,0.51953125,2.265625,-1.5234375,-1.7734375,4.09375,-2.5,2.375,-2.28125,1.4609375,-3.203125,5.71875,2.578125,0.0634765625,3.328125,2.859375,-2.0625,-3.0625,4.84375,-3.375,0.77734375,-2.90625,0.484375,2.859375,-0.2392578125,3.625,0.84765625,2.453125,-5.875,3.0625,-0.88671875,-0.8359375,-2.578125,0.9609375,-0.625,-2.171875,0.5234375,0.486328125,2.1875,-0.490234375,4.5,2.40625,3.90625,-3.484375,1.59375,-3.890625,2.5,-4.90625,0.58203125,-7.875,4.375,3.484375,3.703125,-0.6796875,-2.703125,4.34375,1.7265625,1,-6,3.984375,1.140625,0.302734375,-0.0576171875,-3.140625,1.34375,-2.390625,1.0078125,-3.828125,-2.4375,-0.84375,-0.38671875,-4.3125,1.25,0.9140625,-3.5,-4.09375,-1.6640625,0.703125,-1.3828125,0.44140625,6.53125,-1.09375,0.061279296875,2.6875,2.609375,2.921875,1.2578125,1.484375,2.09375,0.28515625,4.0625,0.0556640625,-5.0625,1.328125,-1.328125,2.984375,-0.53515625,-3.484375,-1.0859375,-4.96875,1.5546875,4.59375,2.34375,1.6640625,-3.671875,0.224609375,2.390625,-3.578125,0.40625,1.78125,2.765625,-1.7734375,1.28125,-0.515625,6.59375,4.9375,4.78125,0.75,-0.60546875,-1.921875,-2.703125,0.7265625,3.015625,-3.59375,1.5234375,-1.3046875,-6.25,-1.765625,0.35546875,-0.302734375,-0.67578125,-1.5078125,1.484375,-1.3984375,-1.125,1.1328125,-4.90625,-0.36328125,-5.15625,-0.5859375,-0.416015625,2.265625,0.59375,-0.73046875,-2.03125,-3.84375,-0.68359375,3.21875,-0.83203125,-5.875,-3.578125,1.515625,-0.54296875,-2.5,-0.013671875,1.390625,0.68359375,0.416015625,5.375,0.828125,-3.609375,2.484375,21.25,0.48046875,-7.5,-1.3515625,-2.609375,4.59375,4.625,0.318359375,-4.3125,2.734375,-0.83203125,1.8671875,-2.59375,-0.126953125,-0.80078125,0.609375,2.78125,1.453125,-0.09228515625,-4.6875,-1.578125,-1.765625,-0.09765625,4.25,2.34375,7.4375,4.9375,-2.65625,-0.99609375,0.61328125,-5.125,-3.1875,-0.10498046875,-1.0078125,-1.6796875,-2.265625,6.71875,0.1572265625,-2.03125,-0.83203125,-3.4375,-3.640625,4.25,0.67578125,0.341796875,3.25,-0.0498046875,-2.75,1.3125,-2.203125,-3.328125,-1.296875,-4.09375,2.5,0.6640625,-5.65625,1.328125,-3.671875,-2.078125,-4.21875,-2.765625,1.0703125,3.921875,-4.1875,-1.203125,-0.671875,-4.0625,2,0.373046875,-2.734375,-5.5625,-0.9375,2.703125,2.4375,0.2080078125,-3.65625,2.828125,1.84375,2.4375,2.078125,-2.421875,1.8828125,-2,-3.5625,-0.5390625,-1.0078125,-4.75,2.390625,0.87109375,-2.125,6.71875,-0.55078125,0.6875,0.0257568359375,-1.0703125,-3.15625,0.68359375,3.25,0.028076171875,-0.91015625,1.1015625,1.3046875,0.46875,0.94140625,6.21875,0.9765625,2.625,-1.9609375,-1.4140625,-0.2890625,-2.125,1.7890625,1.1328125,-3.578125,1.328125,3.1875,-0.10546875,-3.5,-0.69921875,-1.15625,8.375,0.82421875,-1.03125,-2.5625,-9.625,-1.5390625,-1.84375,-6.03125,2.53125,-4.1875,-2.03125,0.74609375,-7.96875,-3.40625,-3.515625,-2.21875,3.234375,5.875,3.046875,-4.875,-3.28125,1.765625,2.203125,-2.546875,-3.140625,0.212890625,-0.404296875,2.4375,2.078125,3.734375,-4.09375,1.3671875,0.2333984375,-1.703125,-2.703125,-0.0693359375,-0.054443359375,-3.1875,-2.484375,-3.125,-2.390625,-1.421875,-0.35546875,-3.421875,0.080078125,-0.52734375,1.9375,1.0234375,-4.21875,1.5703125,1.78125,-5.9375,-1.6796875,-3.609375,2.625,0.7890625,1.28125,5.8125,2.546875,3.15625,6.15625,3.296875,-2.0625,-1.8984375,2.140625,5.875,-3.6875,0.6171875,-3.546875,-2.140625,-0.765625,-3.078125,-4,4.34375,-0.6875,-0.95703125,0.765625,-2.484375,-1.1484375,-0.376953125,0.91796875,7.875,0.09228515625,1.625,1.0390625,1.5,-2.125,-3.046875,-0.546875,-4,-5.125,-0.54296875,1.5546875,-1.78125,-5.15625,4.625,3.984375,-0.3984375,0.390625,-0.07421875,-1.0390625,0.5390625,-4.25,0.271484375,2.96875,1.0625,-2.6875,4.4375,-4.5625,0.75390625,0.1708984375,3.46875,0.5625,2.5,0.486328125,-3.828125,-4.3125,3.015625,1.3046875,-2.078125,2.15625,0.48046875,4.15625,3.046875,-2.078125,4.96875,1.1484375,-1.46875,0.482421875,1.078125,1.125,4.0625,-0.5625,-2.265625,1.2578125,-3.53125,-2.078125,0.6953125,-4.25,3.0625,4.75,-5.5,-0.39453125,-4.34375,-1.1796875,0.21875,2.5625,-4.375,2.890625,2.640625,-3.625,3.171875,0.240234375,-3.3125,-0.546875,-0.1328125,2.890625,-2.65625,-1.125,2.28125,-2.578125,0.265625,-0.3515625,-4.34375,4.5,-1.0390625,-0.177734375,-1.1640625,2.53125,3.75,1.5546875,4.71875,-2.828125,-0.181640625,-7.09375,1.546875,-1.109375,-0.1787109375,2.859375,2.21875,2.21875,4.625,0.8125,-6.1875,-1.71875,1.4609375,-0.99609375,4.25,-1.234375,-0.396484375,-1.3984375,1.3125,1.2578125,1.7734375,1.484375,1.9140625,-4.34375,5.78125,-0.000022292137145996094,-4.625,-0.123046875,3.078125,1.40625,-0.71875,-2.359375,-5.09375,-0.040283203125,4.0625,-8.3125,1.6953125,4.6875,1.7421875,-0.1796875,1.9140625,-0.39453125,3.4375,-4.78125,-6.3125,0.2890625,0.60546875,-1.03125,1.125,-0.56640625,1.9765625,-0.443359375,5.21875,-1.328125,5.78125,2.203125,-9,1.7109375,-2.34375,2.578125,-2.140625,-0.058349609375,-0.2333984375,6.125,1.5,4.59375,2.703125,3,0.87109375,3.734375,-1.4609375,-4.375,4.65625,5.46875,-2.640625,-1.890625,2.015625,0.546875,1.140625,0.77734375,3.734375,-2.609375,2.5,1.34375,5.53125,3.4375,-1.40625,-4.90625,1.671875,-3.09375,-2.28125,1.4921875,1.015625,1.40625,3.03125,-1.0390625,0.169921875,-0.87890625,-3.0625,-1.9453125,-5.3125,1.015625,-0.578125,2.328125,-3.8125,0.28515625,3.390625,2.703125,-1.5,-5.0625,3.015625,-3.953125,-2.0625,-1.796875,1.234375,-4.28125,0.60546875,0.13671875,2.15625,0.76953125,-2.828125,1.0859375,3.578125,8.0625,-1.109375,-4.25,-6.25,0.01141357421875,3,-0.00531005859375,-2.265625,-0.9765625,0.7265625,-5.8125,-3.15625,-2.953125,-2.1875,-0.2490234375,3.359375,-2.3125,-0.251953125,0.7109375,0.06494140625,-1.8671875,3.859375,5.90625,2.125,-0.578125,-0.1669921875,-1.1484375,2.609375,8.3125,-1.3515625,-3.890625,-0.78125,-0.271484375,-6.46875,-2.046875,1.671875,-5.1875,-8.125,6.375,-0.435546875,3.609375,2.890625,-5.78125,4.625,-0.08349609375,0.9296875,-0.49609375,-0.41015625,2.078125,-4.5,0.369140625,-0.4296875,-5.34375,1.4375,2.53125,-5.53125,2.71875,7.0625,-1.3515625,3.0625,-3.203125,-1.71875,3.734375,-0.81640625,-4.5625,-0.81640625,1.203125,2.859375,-4.40625,0.012939453125,-6.5625,0.466796875,-1.4921875,0.828125,2.546875,0.5390625,-1.625,-2.578125,-0.037841796875,4.84375,1.53125,5.5,-3.140625,4.84375,2.34375,-2.703125,3.109375,3.34375,3.859375,1.46875,-2.546875,1.875,-5.59375,-0.67578125,-1.3359375,3.234375,2.71875,-1.1796875,1.5703125,0.86328125,-0.1923828125,-1.3125,-2.3125,1.0546875,2.65625,1.453125,-3.21875,-0.91796875,0.57421875,-2.84375,0.490234375,2.28125,-4.34375,-1.890625,3.484375,-1.40625,1.5234375,-6,2.453125,0.111328125,-2.109375,-1.90625,-1.984375,-2.671875,-1.9453125,-1.7734375,-0.93359375,-2.203125,-0.6640625,1.6015625,-3.15625,-0.7421875,3.40625,1.1796875,-1.3046875,1.2265625,0.796875,3.140625,1.6640625,1.1328125,0.625,-2.546875,-0.375,0.314453125,-0.73046875,4.53125,-1.1796875,-2.71875,-2.65625,0.6328125,0.474609375,1.40625,-1.0625,0.1044921875,-0.9765625,-0.54296875,-0.56640625,2.046875,2.484375,0.41796875,-0.291015625,-0.0556640625,-0.1923828125,0.890625,-2.109375,-4.59375,-0.84375,-3.078125,0.232421875,-1.921875,1.75,0.78515625,2.75,-3.515625,0.609375,-2.4375,-1.546875,-2.140625,-4.40625,1.8125,-0.55078125,-0.0283203125,-0.60546875,-4.75,-0.06103515625,-0.8671875,0.1728515625,-2.359375,-0.6484375,-0.28125,1.4453125,-1.359375,-3.265625,2.65625,-0.95703125,0.6015625,1.8203125,-1.3828125,3.03125,0.765625,0.00469970703125,0.671875,1.5703125,-3.578125,4.28125,-1.4609375,-1.4453125,3.3125,-0.578125,0.062255859375,0.8046875,0.9609375,2.125,-1.0859375,0.95703125,-0.54296875,2.078125,-3.140625,0.80078125,-2.359375,3.453125,0.59375,3.53125,4.125,-2.796875,2.078125,0.59375,0.234375,3.65625,1.296875,-1.75,2.6875,-3.21875,1.5234375,-2.546875,-0.51171875,-0.060302734375,0.50390625,0.5390625,-0.404296875,-0.6953125,-0.8203125,-0.61328125,-0.5625,-1.1875,-2.75,-1.65625,-4.28125,-4.84375,-2.125,1.796875,0.1494140625,-0.97265625,-1.6484375,-0.53515625,1.0859375,-1.0625,-2.375,0.98046875,-0.18359375,-0.10107421875,1.84375,-1.25,2.15625,0.298828125,0.91796875,0.61328125,-2.09375,2.53125,0.37890625,1.5546875,0.40234375,-1.203125,0.453125,0.87890625,-0.022705078125,-0.51171875,0.0517578125,-0.296875,0.0218505859375,2.84375,1.2734375,-0.4921875,-0.36328125,-1.0625,0.1884765625,-1.6953125,1.9140625,1.2578125,1.203125,1.6640625,3.34375,-2.3125,-0.84375,-0.2431640625,0.2431640625,-0.05712890625,-1.65625,-0.81640625,-0.90625,-2.40625,1.046875,5.90625,-1.796875,-0.69921875,0.12353515625,-2.0625,-0.77734375,-0.23046875,-2.578125,2.265625,-4.125,0.65625,0.66015625,-1.171875,2.640625,1.21875,2.953125,-0.0018310546875,1.296875,2.984375,0.2431640625,-1.53125,-0.9296875,2.328125,-1.4375,0.3984375,2.78125,0.099609375,1.5703125,0.423828125,1.8671875,0.8203125,-2.8125,1.3203125,-0.23046875,-0.546875,-3.0625,0.5,-1.640625,1.765625,0.92578125,-0.76953125,0.28515625,1.9140625,0.2431640625,3.640625,1.671875,0.181640625,1.9375,-2.03125,2.65625,2.28125,-2.484375,-0.85546875,-0.84375,1.2734375,-1.4921875,-2,0.259765625,-3.5625,0.953125,-1.078125,-2.90625,-8.5625,-1.15625,-2.125,-2.46875,2.375,2.015625,-0.447265625,-0.1474609375,-0.01116943359375,2.09375,4.28125,3.296875,-0.71484375,-0.40625,-3.203125,1.3046875,-3.171875,1,1.484375,-0.0693359375,2.40625,1.40625,0.39453125,0.021240234375,1.671875,2.46875,-1.4921875,2.390625,-5.46875,-3.15625,-2.078125,-3.671875,0.0028076171875,0.375,1.3046875,1.5859375,3.34375,0.2109375,1.6328125,0.55078125,2.546875,2.234375,-1.7421875,0.52734375,-0.96484375,-1.0625,1.3828125,-4.65625,-0.126953125,-1.0703125,-1.6015625,-0.443359375,-0.310546875,-0.6171875,-0.7890625,1.421875,1.875,-0.408203125,0.79296875,-2.03125,-0.83203125,-0.490234375,2.1875,0.4609375,-0.4140625,-1.5234375,-2.84375,-0.19140625,-3.234375,-2.140625,-1.28125,-0.2021484375,-0.80859375,1.359375,-2.828125,0.265625,-4.1875,1.5390625,-1.875,0.380859375,3.359375,-1.828125,0.23046875,-0.052490234375,0.275390625,-0.83203125,-0.2236328125,1.40625,-2.171875,1.1171875,0.1591796875,-4.6875,1.0234375,-2.109375,-1.3203125,3.359375,-1.9296875,1.7890625,-1.1015625,-0.33984375,-0.061767578125,2.40625,0.65234375,4,-2.9375,-1.890625,-3.53125,-0.0108642578125,-2.03125,-1.7578125,1.8515625,1.3203125,0.275390625,-0.21484375,0.271484375,0.54296875,0.39453125,-0.07763671875,-1.859375,0.703125,-0.20703125,3.734375,0.0625,1.2421875,-0.64453125,2.03125,0.90625,2.484375,1.4453125,0.27734375,2.09375,1.0234375,1.1796875,-0.8984375,1.65625,3.765625,-2.78125,0.166015625,0.1552734375,1.9140625,0.96484375,-3.265625,-2.0625,2.40625,0.095703125,1.3203125,2.8125,0.75,1.4140625,-0.021240234375,-0.5,2.734375,-1.3515625,2.203125,-0.40625,2.890625,2.28125,-3.484375,1.9296875,0.40625,1.7109375,2.125,1.203125,0.72265625,0.75,2.515625,-0.053955078125,-0.220703125,-1.6640625,-1.328125,1.578125,-4.03125,1.4453125,-0.5703125,-0.78125,5.03125,1.484375,3.46875,0.515625,2.8125,0.1298828125,2.1875,0.73046875,-1.3671875,-4.875,-2.734375,0.34375,0.06884765625,0.265625,-2.578125,1.8671875,-2.484375,-4,0.97265625,2.265625,3.375,-0.85546875,4.96875,-0.6640625,-0.1455078125,-2.78125,0.015380859375,0.55078125,1.3203125,0.466796875,0.94140625,1.9765625,0.515625,-2.640625,-3.21875,1.8125,2.46875,-3.0625,-0.2431640625,0.9765625,-1.1015625,2.90625,-2.4375,6.65625,6.40625,0.1513671875,0.8125,2.296875,-0.55859375,3.53125,-0.455078125,0.97265625,3.0625,-1.3515625,1.3984375,1.6328125,1.3203125]],"6fbcfabe3a4241d366b412bb58b7927d":[151.17939565662402,[-4.65625,1.328125,1.421875,-0.06298828125,-2.15625,1.15625,-0.71875,-1.8671875,0.89453125,2.421875,5.53125,0.251953125,5.53125,2.4375,3.140625,0.796875,2.078125,-0.453125,-1.515625,-3.03125,2.546875,6.78125,-0.443359375,-5.84375,0.796875,-3.78125,-0.11669921875,2.3125,1.2265625,-2.671875,2.4375,-2.890625,-2.234375,-2.890625,-3.765625,-0.8359375,-2.53125,-0.87890625,5.5,4,-7.0625,2.046875,2.5,3.9375,-1.5390625,1.078125,-0.42578125,-1.8203125,-4.4375,-2.890625,-4.6875,-4.875,7.59375,1.109375,2.1875,-3.15625,-4.84375,6.96875,-5.53125,-2,2.484375,-3.03125,1.0625,-1.640625,1.2578125,4.65625,2.640625,1.953125,-1.578125,-0.14453125,-3.578125,-0.1337890625,4.34375,-2.484375,6.8125,5.4375,2.3125,1.6328125,-5.53125,1.7890625,-7.40625,-1.546875,5.09375,1.671875,7.25,4.625,-2.828125,-1.5546875,-3.21875,3.5625,-1.3203125,0.171875,-1.0625,-3.109375,3.15625,0.240234375,-1.3125,-4.875,-8.0625,-0.390625,-0.423828125,2.171875,-0.23046875,-1.546875,2.859375,-3.03125,-4.96875,-4.90625,-0.66015625,-5,-1.328125,0.294921875,3.84375,-0.8671875,4.15625,1.125,-0.68359375,-2.34375,-1.5,0.4765625,-1.109375,-1.3515625,-3.765625,-4.25,6.75,-2.125,-5.65625,3.796875,3.375,4.96875,1.5859375,3.453125,1.28125,-2.875,-4.03125,3.359375,-5.46875,0.8125,6.75,1.59375,-6.65625,-2.09375,-0.0830078125,-0.9453125,1.109375,2.46875,-3.875,1.2109375,3.703125,-1.1328125,2.609375,0.037353515625,1.2734375,3,-2.703125,-4.09375,0.1826171875,2.859375,-1.7890625,-3.890625,0.1015625,-0.0186767578125,3.203125,-2.25,-2.421875,-1.84375,-2.75,4.84375,1.8984375,-0.76171875,-0.1025390625,14.5625,3.0625,-5.5,-0.51953125,3.1875,-0.640625,7.84375,1.890625,-0.26953125,-2.109375,2.953125,-3.34375,5.3125,-0.94140625,0.9296875,0.375,-3.453125,4.84375,-2.125,-0.640625,2.171875,1.1484375,0.84375,-4.75,-0.1005859375,2.6875,0.005218505859375,-2.640625,-2.25,-3.71875,-7.15625,-1.234375,-1.1875,-0.06298828125,-4.5625,5.40625,-0.169921875,1.15625,-3.203125,2.171875,1.3671875,-1.828125,0.01513671875,6.71875,-0.375,6.28125,2.5,6.09375,-0.2421875,4.8125,3.859375,0.59375,-0.953125,0.498046875,-1.4296875,3.75,1.0546875,1.8828125,4.40625,-2.578125,0.04833984375,5.21875,-2.59375,-0.796875,-4.75,-4.25,1.6171875,0.83203125,-0.625,-2.203125,-4.5,-1.2421875,0.6953125,0.486328125,0.5234375,-4.09375,0.74609375,-4.3125,-7.75,3.28125,2.75,-3.84375,0.1416015625,5.09375,6.0625,-1.6953125,-0.6484375,-1.5,-1.3984375,6.09375,-1.328125,-3.1875,6.40625,0.2119140625,0.150390625,3.015625,0.83203125,2.890625,1.109375,1.4296875,-4.1875,0.466796875,-0.134765625,-3.03125,5.25,-1.8046875,-3.015625,4.375,-5.34375,-0.181640625,-5.71875,1.296875,-4.625,4.125,-2.75,-0.98828125,3.953125,-2.890625,11.25,5.5,-2.234375,1.1953125,-1.21875,-3.9375,-3.171875,-2.609375,-3.390625,-5.46875,-0.76953125,2.578125,5.90625,-0.359375,-0.91796875,-3.25,4.0625,2.1875,-0.388671875,1.5703125,0.26171875,-2.4375,2.3125,8.1875,-4.03125,-0.1611328125,-3.65625,-4.375,1.1875,0.09423828125,-5.0625,-3.265625,-4.15625,-2.53125,-3.1875,-1.4609375,-1.984375,1.0703125,-0.10498046875,2.6875,-3.703125,1.90625,1.421875,-5.90625,-6.71875,6,-0.59375,1.6875,7.34375,2.078125,0.337890625,-5.375,-6.59375,7.28125,-2.25,-1.7890625,-0.8359375,4.90625,-4.03125,2.46875,-2.5625,4.5,0.50390625,2.453125,3.90625,6.625,0.291015625,3.4375,1.1484375,3.1875,-0.60546875,3.484375,-1.6953125,1.84375,-0.01806640625,-4.03125,-1.9296875,-3.109375,4.0625,-3.03125,-2.546875,4.3125,-2.59375,3.96875,2.9375,3.140625,-1.453125,-4.25,0.94140625,-7.0625,0.49609375,0.44140625,0.921875,0.73046875,-6.03125,2.359375,0.58984375,2.6875,-0.2890625,4.6875,-3.921875,-1.953125,-2.03125,-0.70703125,0.6484375,1.734375,-2.34375,-1.765625,3.25,-1.796875,1.3828125,1.4140625,-2.453125,-0.6484375,-1.125,-4.65625,-2.390625,1.296875,-11.3125,-0.6328125,3.953125,0.43359375,0.01611328125,3.234375,-1.6015625,0.78515625,1.578125,-2.90625,2.640625,-4.71875,-0.60546875,-7.53125,3.234375,2.8125,-2.953125,-0.57421875,0.578125,4,6.21875,4.59375,1.5859375,0.357421875,-1.984375,-6.3125,-1.1015625,-3.625,-4.71875,3.25,-2.75,-2.25,-0.037353515625,6.53125,-0.1982421875,4.5,0.2421875,-5.03125,-0.2578125,1.9375,3.046875,-2.46875,-0.90234375,0.74609375,0.345703125,-2.0625,3.703125,0.21875,1.4921875,-7.59375,4.34375,7.28125,-1.5859375,-2.09375,-6.34375,-0.455078125,2.15625,-1.484375,-1.1328125,-0.66015625,1.2109375,5,-3.125,-7.75,3.15625,-0.4296875,-4.34375,-1.203125,6.625,2.234375,5.8125,-0.54296875,-3.84375,-1.6953125,-1.8984375,6.53125,0.97265625,-5.53125,-3.78125,-1.1640625,5.96875,3.953125,1.4296875,-2.953125,-0.91796875,1.1171875,-3.375,2.1875,2.203125,11.375,-0.88671875,0.54296875,-1.3125,-8.0625,-0.60546875,-3.21875,-0.78125,0.796875,0.185546875,4.0625,-2.09375,0.62890625,-2.453125,5.84375,-3.84375,-1.109375,0.287109375,-3.875,-5.5625,-0.263671875,1.1875,2.34375,-0.0791015625,-4.375,1.2109375,2.4375,2.03125,1.1953125,-2.625,0.90234375,-1.7265625,0.478515625,2.15625,1.96875,2.328125,-2.875,0.126953125,-4.375,-3.125,0.90234375,-1.6484375,-2.46875,2.25,2.265625,3.109375,-5.09375,-1.2734375,-2.1875,-0.0908203125,1.4609375,-1.84375,2.4375,-1.484375,1.65625,0.27734375,-3.203125,-1.59375,-0.1826171875,-3.328125,-3.375,-0.5859375,0.53515625,-1.3359375,0.83984375,-2.9375,5.09375,3.65625,-3.875,-0.625,0.453125,5.53125,3.546875,-1.015625,1.859375,-0.021484375,-4.6875,-1.203125,-0.62890625,3.828125,-5.09375,-6.34375,-2.984375,3.125,3.84375,-3.1875,0.85546875,0.3671875,5.96875,-0.349609375,2.21875,-13.5625,2.78125,-0.061279296875,-4.1875,-1.03125,-3,-0.6875,-2.703125,-1.46875,-0.3359375,-2.1875,0.9140625,3.578125,-2.109375,-1.6875,2.984375,-1.9765625,-1.5625,2.078125,-1.3125,-4.40625,-1.1015625,-4.25,3.78125,2.5,4.28125,0.44921875,0.58984375,4.46875,-1.5546875,2.09375,5.71875,-0.96484375,-4.0625,-0.69921875,-0.95703125,2.515625,-7.03125,4.34375,-0.2734375,-5.84375,-0.59765625,-0.068359375,-0.5078125,0.60546875,-4.375,-2.703125,5.09375,2.6875,-6.46875,1.8515625,0.71484375,1.671875,0.90234375,-1.1875,1.1484375,0.59765625,4.375,1.34375,-1.8515625,3.375,-0.03759765625,-3.671875,1.0390625,1.484375,2.265625,1.2421875,1.4296875,-1.7578125,0.263671875,-1.140625,3.234375,-1.6953125,-2.703125,-3.203125,2.46875,-0.73046875,4.375,0.451171875,2.0625,-2.328125,3.796875,2.75,1.40625,0.60546875,-0.47265625,4.28125,1.6484375,-2.921875,6.71875,-1.90625,-3.953125,1.84375,2.015625,1.3828125,0.9921875,0.75,2.234375,-2.109375,-1.8515625,-2.953125,-7.21875,-0.828125,1.9921875,-0.796875,1.4296875,-6.875,2.578125,1.921875,-3.78125,4.375,-1.4765625,0.8046875,-0.9375,2.234375,-3.328125,1.5703125,6.25,-0.0155029296875,1.3125,7.4375,-0.9609375,0.12109375,-2.515625,5.90625,-1.78125,-3.3125,1.59375,-1.828125,-2.40625,-1.59375,1.6640625,-2.265625,-1.1875,-2.421875,-1,-4.6875,-2.046875,-4.625,-2.6875,-6.59375,0.46875,3.609375,2,-2.71875,2.375,4.65625,0.271484375,2.109375,-2,2.53125,-1.015625,-0.95703125,-1.046875,-4.09375,-0.072265625,-0.62890625,-4.125,1.5078125,3.546875,4.3125,2.75,3.0625,-3,-7.0625,1.6640625,-0.52734375,2.1875,-1.9296875,0.609375,2.265625,1.8359375,-2.6875,-3.015625,-2.46875,6.65625,-0.7421875,-0.10498046875,-3.828125,2.9375,-0.69140625,2.828125,-6.84375,-2.296875,0.279296875,0.83984375,1.8359375,-5.875,8.0625,-2.296875,-1.84375,0.625,2.859375,0.26953125,-1.6953125,-0.8984375,1.3671875,-0.140625,1.84375,2.546875,0.51171875,-1.390625,-0.9140625,-2.640625,-2.8125,1.1015625,4.3125,2.453125,-3.5625,-2.890625,-0.263671875,-1.84375,1.3671875,5.875,-2.25,-2.34375,-1.40625,4.4375,-0.59375,6.53125,0.279296875,10.875,-3.640625,-2.640625,2.296875,3.09375,1.7734375,1.65625,-7.375,-1.828125,-1.3359375,3.96875,-4.71875,0.71484375,-4.40625,-0.267578125,4.28125,0.70703125,1.9375,2.234375,3.171875,5.59375,0.28125,-2.046875,-3.671875,0.70703125,0.05908203125,0.259765625,0.349609375,3.796875,2.5,4.59375,2.34375,-2.53125,-1.9921875,3.796875,-0.30078125,-1.015625,1.4609375,-2.0625,2.828125,1.9453125,2.375,-3.109375,3.84375,6.40625,2.640625,-2.78125,3.078125,-1.8359375,1.5078125,-1.40625,-2.859375,-0.78125,-1.2265625,-0.28125,-3.75,-0.466796875,0.51953125,0.6640625,4.5,-0.5546875,-2.0625,5.0625,-0.56640625,-1.1640625,1.171875,1.3203125,1.421875,-1.7109375,-3.140625,-3.453125,-5.5625,-1.734375,6.25,-3,2.875,4.46875,-3.21875,1.0078125,-2.109375,-1.15625,-2.765625,2.921875,3.296875,-9.375,1.3203125,-4.625,-14.4375,-4.5625,-0.55859375,-4.125,-0.205078125,-5.46875,-2.21875,-2.25,-6.71875,0.384765625,-5.59375,-1.7578125,5.21875,2.171875,-0.384765625,-1.421875,-1.1953125,3.328125,8.125,5.40625,-2.421875,2.296875,3.96875,-1.75,0.412109375,-0.8828125,3.96875,-0.96484375,2.09375,-0.56640625,3.1875,-8.4375,1.71875,0.33984375,1.015625,-5.25,1.734375,0.7890625,2.34375,5.21875,-0.359375,1.0703125,-1.875,-4.8125,0.087890625,-4.53125,-0.380859375,8.25,-1.2265625,2.34375,1.4140625,3.234375,-0.318359375,0.123046875,1.9140625,1.1328125,1.6015625,-3.921875,-1.734375,-0.474609375,0.302734375,-0.7578125,-2.046875,0.61328125,1.4765625,2.828125,3.421875,0.69921875,8.75,-0.3515625,3.53125,0.765625,2.921875,-3.265625,0.6171875,3.078125,2.15625,2.46875,-3.28125,-3.3125,-2.109375,1.4453125,-1.921875,-2.546875,-1.7421875,-3.140625,-1.1640625,2.515625,-1.0703125,-0.2353515625,4.5625,0.81640625,2.46875,3.546875,0.78125,3.59375,3.3125,-5.5,2.671875,-1.390625,0.56640625,0.125,1.4375,3.765625,-0.30859375,-5.0625,-2.8125,-0.330078125,1.671875,-1.75,-2.15625,6.96875,0.130859375,-3.453125,5.34375,-1.4140625,0.30078125,-3.59375,-1.5625,6.8125,8.8125,-4.5625,-4.9375,-3.265625,-3.078125,-0.357421875,3.4375,-0.34375,3.171875,3.125,-0.400390625,-0.470703125,-0.97265625,0.212890625,-6.0625,1.1328125,2.671875,0.255859375,-3.3125,2.546875,-0.0216064453125,-1.4609375,3.125,-1.03125,-2.4375,0.59765625,3.703125,1.8984375,2.8125,0.3359375,-1.9921875,-3.65625,-2.328125,-3.40625,-0.349609375,1.2421875,0.134765625,-2.453125,-1.734375,2.5,3.140625,-0.71484375,3.15625,1.59375,-1.609375,1.375,-0.92578125,-5.375,-3.078125,-2.828125,1.5546875,0.185546875,-6.0625,-0.12451171875,2.265625,-3.734375,8.0625,-3.203125,3.984375,-2.515625,-2.53125,2.3125,-3.125,4.28125,-0.671875,-1.2890625,-0.263671875,-0.0244140625,-0.16015625,-2.109375,0.71484375,-1.359375,-0.88671875,5.90625,-4.65625,0.24609375,-2.171875,2.015625,-4.375,-4.375,-0.337890625,4.59375,-0.67578125,1.7734375,-1.171875,-1.015625,4.28125,-0.1787109375,2.6875,-3.421875,-0.28125,3.3125,4.34375,5.96875,0.55078125,-1.765625,-3.921875,-4.4375,-0.5390625,-0.427734375,-2.53125,0.9609375,-1.2734375,-0.96875,0.62109375,1.3125,-4.65625,1.359375,0.02783203125,-1.1328125,3.25,0.0439453125,-0.1630859375,1.46875,0.14453125,-1.9609375,-2.71875,-2.6875,1.828125,2.578125,0.08642578125,0.453125,0.0458984375,3.6875,-1.4609375,-0.30859375,-0.51171875,1.0546875,1.0625,-2.921875,1.03125,4.84375,1.078125,1.9375,-2.921875,-0.095703125,-5.96875,0.32421875,-0.88671875,-0.185546875,1.109375,5.5,-0.171875,-4.53125,-1.9140625,0.23046875,4.8125,0.515625,0.72265625,2,4.34375,-4.53125,-1.5234375,0.7734375,4.28125,1.2890625,0.169921875,5.34375,-4.0625,6.15625,0.279296875,-1.40625,-0.28125,1.3203125,3.21875,-0.1484375,-1.953125,1.9921875,-0.75390625,-0.87109375,4,2.609375,-2.5625,-3.421875,-1.8203125,6.3125,1.1953125,-3.90625,4.03125,0.83203125,-3.296875,4.40625,3.46875,2.5625,-1.3203125,1.71875,-0.734375,-1.0234375,-9.5,4.125,1.0234375,0.60546875,-2.59375,-3.4375,1.078125,-3.3125,-3.046875,3.328125,2.734375,3.328125,-2.9375,6.78125,4.25,-2.5625,-1.359375,0.40234375,-0.96484375,-2.609375,-0.56640625,-4.875,-1.8046875,2.3125,-10.5,-1.7890625,1.6328125,-2.125,2.984375,0.68359375,4.53125,-0.67578125,-4.65625,1.7421875,-0.42578125,3.3125,1.4375,-0.443359375,-2.390625,6.03125,3.25,-1.5078125,-2.0625,1.0546875,-0.59765625,3.578125,4.59375,2.84375,-3.671875,-4.375,2.390625,-0.271484375,-0.79296875,-4.96875,-1.2265625,-0.064453125,2.296875,-2.921875,-1.0546875,-0.40625,-1.9375,3.171875,0.9609375,1.90625,-3.5625,3.578125,-1.515625,-0.71484375,2.4375,-1.3203125,-1.3125,0.515625,2.015625,1.640625,0.12109375,-1.1640625,-0.2333984375,0.248046875,-4.84375,-4.21875,-2.375,4.34375,0.322265625,-2.53125,1.125,-2.828125,3.6875,2,-5.8125,-1.3828125,-5.34375,2.015625,5.5,2.265625,1.4296875,0.298828125,-3.515625,2.78125,-0.1044921875,-0.263671875,1.2109375,-1.296875,-0.06640625,-2.6875,3.046875,-3.390625,6.09375,-0.8984375,2.671875,-3.6875,2.171875,0.83203125,-0.04345703125,-2.6875,-3,0.2001953125,0.095703125,-0.474609375,0.6171875,-3.703125,3.78125,-1.921875,-0.5859375,4.8125,0.333984375,3.234375,0.2490234375,-2.03125,4.9375,3.625,6.90625,1,-0.859375,0.890625,0.515625,-0.431640625,-0.95703125,-3.125,-4.1875,2.546875,0.2001953125,-0.330078125,-7.1875,3.1875,-1.6796875,4.1875,2.734375,1.640625,-2.078125,-0.1640625,-1.0390625,-3.546875,-1.2109375,-1.5234375,-2.34375,0.875,-4.15625,0.7421875,1.96875,5.6875,2.234375,3.921875,0.66015625,-2.578125,0.146484375,-1.65625,1.59375,-0.796875,4.125,-2.3125,-0.265625,3.109375,-2,1.7265625,-3.109375,-5.4375,-7.90625,-1.203125,-1.1640625,4.8125,-2.734375,-2.71875,5.09375,0.84375,0.70703125,0.5390625,0.98828125,-3.34375,2.90625,0.87109375,7.1875,2.6875,0.2412109375,-2.765625,6.375,4.09375,-1.65625,5.34375,0.15625,0.166015625,-2.4375,4.84375,-0.78125,-0.49609375,2.640625,2.625,2.828125,0.032958984375,2.578125,2.28125,0.349609375,-4.9375,1.6171875,-0.9765625,-1.6015625,-1.7734375,0.92578125,0.123046875,0.09765625,3.53125,2.5,-1.0078125,3.40625,1.5546875,0.8203125,5.1875,-3.8125,3.015625,-5.625,3.453125,-1.828125,-1.671875,-9.3125,1.03125,3.140625,3.53125,-0.625,-0.7578125,3.203125,1.8671875,-0.9140625,-5.25,0.41796875,2.4375,-1.6796875,-2.484375,-0.2431640625,-1.625,0.52734375,-0.302734375,-1.765625,-1.140625,2.25,-1.6484375,-1.6796875,4.1875,0.7734375,-2.53125,-1.6875,-3.46875,0.006011962890625,-2.6875,2.796875,5.0625,-1.3359375,-0.28125,-0.171875,3.0625,5.28125,0.1357421875,4.34375,3.859375,-0.79296875,2.046875,2.09375,-3.03125,0.46484375,-1.96875,1.28125,-0.470703125,-1.96875,0.5390625,-5.5625,-0.5234375,1.328125,3.21875,4.90625,-2.703125,0.443359375,2.265625,-1.125,-0.412109375,1.21875,-0.7109375,-1.65625,1.15625,-0.1552734375,2.96875,3.40625,4.03125,0.291015625,-0.287109375,-1.875,-2.5,-3.578125,2.59375,-3.578125,0.228515625,-5.84375,-0.2421875,-2.65625,2.5,-2.640625,3.609375,-2.78125,1.328125,-2.734375,2.71875,-2.015625,-2.515625,-1.671875,-1.1015625,-2.875,-1.3515625,-0.224609375,-1.6171875,0.361328125,-2.40625,-3.0625,0.88671875,4.375,1.546875,-9.625,-3.90625,-3.0625,2.375,-1.6796875,0.08935546875,-0.06396484375,8.6875,2.90625,5.875,-2.53125,-5.09375,5,17.125,0.5390625,-6.78125,-1.03125,-1.59375,5.59375,3.671875,-2.203125,-1.15625,3.65625,0.25390625,-0.7265625,-0.62109375,-2.078125,-1.8359375,-1.0078125,1.5859375,0.435546875,0.10546875,-2.609375,-3.3125,0.69921875,-0.703125,2.875,4.1875,4,-0.4140625,-0.44140625,-0.490234375,3.203125,-3.71875,-2.171875,-0.087890625,-3.28125,0.78125,-1.5859375,6.46875,-0.046875,-3.5625,-3.140625,-4.65625,-2.796875,3.28125,-3.71875,-1.6875,-1.203125,1.453125,0.609375,-0.14453125,1.2578125,-4.71875,0.421875,-2.640625,1.5078125,2.25,-5.3125,2.046875,-1.5,-0.490234375,-2.890625,-1.5390625,0.68359375,2.765625,-1.9921875,-1.0078125,-4.875,-4.90625,1.5703125,3.0625,-1.4296875,-4.5625,-2.140625,1.6875,3.09375,1.625,-1.1953125,-0.2275390625,1.8046875,3.0625,3.234375,-2.421875,2.125,0.83203125,-1.234375,2.890625,1.7734375,-2.140625,1.4375,2.203125,-1.4609375,8.0625,-4.8125,4.03125,0.1142578125,-2.390625,-3.625,4.40625,5.5,-0.86328125,-0.92578125,1.25,2.875,2.828125,-0.1533203125,6.28125,1.7890625,1.0859375,-1.9140625,0.80078125,-0.06494140625,1.4140625,2.21875,0.390625,-2.40625,1.359375,3.28125,-2.125,-3.5625,-0.796875,-1.953125,5.78125,-0.0029754638671875,-1.578125,-2.390625,-11.8125,-0.69921875,-4.09375,-7.40625,0.043701171875,-5.375,-1.4921875,1.9609375,-1.96875,-0.68359375,-4.375,-3.984375,2.75,4.15625,3.21875,-1.3984375,-3.984375,-0.291015625,-2.765625,-2.453125,-2.453125,-0.146484375,-0.26953125,3.390625,0.4140625,-0.042724609375,-4.875,7.0625,0.1826171875,-1.6328125,-0.328125,-0.51953125,-0.4140625,-1.625,-4.375,-2.546875,-0.0771484375,-4.6875,-0.41015625,-2.53125,-1.0703125,-1.203125,2.953125,-1.8359375,-3.890625,3.9375,0.5625,-2.671875,-2.25,-2.21875,4.1875,0.333984375,-1.25,6.28125,1.109375,-0.412109375,3.59375,1.6015625,-0.82421875,-2.765625,0.78125,6.4375,-4.90625,0.70703125,-1.046875,1.6328125,-1.8828125,-2.65625,-2.796875,7.9375,1.53125,0.76953125,-1.046875,-1.6640625,-1.25,-4.03125,-2.421875,2.703125,-0.458984375,-1.046875,0.609375,-0.9296875,-1.4609375,-3.640625,-2.6875,-1.3671875,-5.84375,1.0625,2.421875,-0.65234375,-2.625,8.0625,0.72265625,-1.4375,0.7578125,0.875,1.5234375,1.7890625,-3.65625,2.515625,1.6875,4.625,-7.09375,2.625,-3.03125,-1.046875,2.140625,4.1875,0.578125,1.5234375,-0.89453125,-2.453125,-5.125,1.3125,-3.265625,-1.6328125,3.953125,-0.78515625,1.96875,1.921875,-2.625,4,0.8359375,0.546875,-3.34375,0.58984375,1.9921875,0.251953125,0.026611328125,0.75,-0.5546875,0.55078125,-0.91015625,0.94140625,-1.6328125,-1.5703125,4.875,-5.09375,1.4453125,-1.6875,-0.59765625,1.1171875,2.921875,-4.59375,7.34375,2.25,-3.671875,4.875,1.890625,-3.109375,2.671875,-0.61328125,-0.42578125,-3.578125,-3.453125,0.318359375,-0.80078125,-0.0220947265625,2.6875,-0.77734375,3.671875,-1.96875,-2.109375,-2.53125,1,4.125,4.03125,8.3125,-1.4921875,2.6875,-5.21875,0.734375,-3.46875,-5.0625,0.041015625,0.1923828125,2.046875,3.984375,0.5625,-3.484375,-0.9140625,-0.2333984375,-1.265625,5.25,-0.036376953125,1.0546875,-0.984375,1.359375,0.91015625,-0.6640625,-2.796875,-1.9921875,-2.28125,2.5625,0.6875,-7.5,0.6953125,2.96875,-0.1015625,0.8671875,-2.15625,-2.390625,1.0625,2.78125,-6.5625,2.96875,3.1875,1.65625,2.421875,-0.91796875,0.3125,4.53125,-2.421875,-2.34375,-0.625,1.90625,0.8671875,1.4453125,-2.71875,3.703125,1.671875,6,-2.6875,1.125,-1.4609375,-10,2.890625,-4.34375,1.7421875,-1.671875,-1.609375,-4.1875,7.34375,6.4375,1.0703125,4.03125,1.515625,-1.2421875,1.3828125,-1.8046875,-4.65625,1.8515625,2.3125,-0.9765625,-3.15625,1.953125,-0.75390625,-3.125,-0.53125,1.8125,-1.8046875,0.578125,4.3125,4.21875,-0.2890625,-0.05615234375,-6.03125,-0.3203125,-0.408203125,-0.984375,1.546875,1.3203125,-1.25,0.3046875,-2.03125,1.9375,-2.75,-0.953125,-1.8828125,-3.703125,1.203125,4.46875,0.4140625,-1.265625,-0.65234375,3.3125,1.734375,-2.703125,-1.4609375,0.9375,-4.8125,-1.390625,-2.859375,1.3515625,-3.25,0.9375,1.7109375,6.15625,0.68359375,-2.390625,0.142578125,0.7578125,5.5625,-0.08837890625,-1.4765625,-1.203125,3.28125,2.578125,-1.546875,-3.625,-1.09375,-2.765625,-3.84375,-5.375,-0.6796875,-1.296875,0.007659912109375,5.03125,0.46875,-1.1796875,2.03125,-3.546875,1.96875,5.5,1.234375,2.4375,-1.078125,-1.375,-2.34375,1.5859375,9.5625,-0.09716796875,-0.796875,1.4609375,-1.515625,-6.03125,-1.875,1.6328125,-6,-5.71875,4.8125,-1.1953125,4.46875,0.330078125,-1.515625,4.09375,-0.8671875,4.5,-0.41015625,0.58984375,1.2109375,-7.28125,-2.421875,0.2060546875,-6.125,1.0390625,-1.984375,-3.625,1.109375,5.625,-2.671875,-0.8359375,1.4296875,-2.75,3.8125,1.9296875,-5.96875,1.03125,-2.0625,2.546875,0.0517578125,-0.69140625,-6.25,-0.482421875,-1.015625,2.1875,-0.2099609375,1.8046875,-1.75,-1.2734375,0.1513671875,3.171875,3.375,1.2109375,1.828125,3.625,0.7109375,-0.26171875,4.75,3.53125,2.390625,-1.53125,0.04345703125,3.78125,-1.421875,-1.65625,-0.79296875,0.578125,-1.078125,-2.921875,2.9375,0.1357421875,0.09423828125,0.1376953125,0.6328125,-3.1875,1.328125,1.0546875,-0.421875,-0.6875,1.96875,0.24609375,1.078125,5.03125,-2.890625,-0.404296875,1.5078125,-0.37890625,2,-1.5703125,-1.5625,-0.498046875,-1.3203125,-3.296875,0.353515625,0.65234375,-0.2890625,-3.84375,-0.7734375,-1.21875,2.5,1.875,-3.4375,2.390625,2.859375,-2.828125,-0.2314453125,-3.21875,-1.765625,2.671875,1.765625,-0.458984375,-0.8515625,1.265625,-1.1640625,1.859375,3.84375,3.890625,0.81640625,3.296875,-2.015625,0.051513671875,0.0262451171875,-0.3125,1.625,-0.90234375,0.1044921875,1.1328125,0.6484375,2.1875,-0.71484375,3.546875,-0.984375,0.4609375,-1.671875,0.162109375,0.439453125,-1.796875,-0.9921875,1.9296875,-3.203125,-0.349609375,1.171875,-0.30078125,1.2109375,-0.0213623046875,0.306640625,0.51171875,-3.75,-0.7890625,2.28125,-1.625,-3.09375,2.484375,-0.91015625,-2.84375,-1.3046875,-1.84375,0.921875,-0.546875,-3,1.8359375,2.25,-0.4609375,-3,2.8125,0.10205078125,-0.23828125,2,-3.578125,0.421875,0.80078125,-0.5390625,2.453125,-0.0322265625,-1.3046875,2.859375,2.46875,-1.6796875,-0.61328125,-0.25390625,-0.50390625,-1.03125,-1.4765625,3.78125,0.328125,2.40625,0.00830078125,-0.9453125,-2.671875,-0.83984375,-2.453125,2.875,-1.40625,4.46875,1.25,-3.296875,-2.046875,0.72265625,1.8515625,-1.1875,4.65625,-0.06982421875,0.76953125,-1.0625,1.1640625,2.09375,-2.84375,-0.328125,3.53125,0.5859375,0.80078125,1.34375,-1.3125,-2.109375,2.421875,0.86328125,-3.5625,-0.4609375,0.232421875,-6.46875,1.859375,-0.63671875,-0.55078125,-4.9375,-3.484375,-1.984375,-2.03125,1.796875,-2.546875,-2.421875,0.7109375,1.46875,-0.4609375,0.462890625,2.21875,-1.078125,-0.337890625,-1.921875,-0.4296875,0.40234375,0.1015625,3.484375,1.4140625,-0.04150390625,0.1376953125,-2.03125,0.81640625,-3.21875,3.84375,0.314453125,2.046875,3.046875,-0.76171875,0.484375,0.1357421875,-1.75,-0.76953125,-1.796875,4.375,-0.71484375,3.921875,-3.671875,1.421875,-0.396484375,-1.0703125,-0.028564453125,1.28125,0.8984375,-0.380859375,1.6953125,2.03125,-1.2265625,-2.4375,2.234375,-2.265625,-1.46875,1.5234375,-1.25,1.6015625,1.3984375,-1.6328125,2.375,-5.625,2.484375,1.59375,-2.5625,3.046875,-1.765625,2.703125,-4.1875,-2.640625,2.25,-0.0206298828125,1.171875,2.953125,1.8984375,-0.453125,0.07373046875,-0.11962890625,0.89453125,-3.390625,-1.7265625,-1.140625,1.4140625,0.73828125,-2.796875,3.484375,-3.09375,0.84765625,1.546875,-1.8984375,1.078125,5.5625,-0.94140625,-1.609375,-0.84765625,-2.171875,2.578125,-4.25,-2.4375,2.59375,-0.0255126953125,-1.90625,-0.11865234375,-1.328125,-1.9140625,1.7734375,-1.2265625,0.09765625,-7.875,-1.4921875,-3.078125,-3.625,-0.0140380859375,-3.53125,-4.3125,2.296875,2.296875,-3.421875,2.609375,1.6796875,2.03125,-1.8359375,-1.9140625,-0.9296875,1.3046875,2.703125,2.796875,-0.91796875,-2.59375,3.078125,-1.734375,3.3125,-2.421875,0.42578125,1.6875,-0.8984375,0.76953125,-1.296875,-1.6171875,-0.30859375,1.4765625,3.734375,-2.34375,-2.03125,1.3828125,-2.765625,0.8046875,0.5234375,-1.484375,0.875,3.390625,0.85546875,3.9375,2.875,4.53125,-0.6484375,1.625,-0.16015625,-2.75,-2.09375,0.68359375,-0.51171875,-0.298828125,-0.04296875,-0.265625,5.5625,1.234375,-1.6953125,-0.01007080078125,-1.9765625,6.125,0.98828125,1.40625,2.234375,2.5625,0.4609375,2.40625,-0.236328125,-3.25,-2.328125,1.8359375,-1.9921875,-1.1796875,-2.140625,0.2197265625,-1.03125,0.134765625,-0.6171875,-1.6796875,-0.01507568359375,-1.6875,4.40625,0.37890625,2.4375,0.86328125,-2.484375,0.2197265625,2.828125,-2.3125,-3.15625,0.0615234375,2.59375,-3.0625,0.65625,0.6875,-4,0.71484375,-1.578125,-0.1806640625,3.390625,-4.0625,1.1875,2.625,2.96875,1.328125,3.75,-2.375,3.515625,-1.7890625,-2.046875,-2.078125,-1.5546875,-0.00013065338134765625,1.5234375,-0.85546875,1.125,0.8984375,1.40625,0.046630859375,-1.15625,-0.4921875,-1.59375,0.703125,-0.7734375,2.75,1.71875,-0.1220703125,1.8515625,-0.455078125,3.984375,1.1015625,1.21875,2.84375,-4.25,-1.3671875,1.578125,-0.91796875,0.65625,1.5,-1.6875,-0.37109375,-2.75,-1.5234375,3.25,1.5625,-3.203125,-0.84375,-1.5390625,-1.9921875,-0.87109375,4.75,-2.28125,1.8828125,-2.1875,0.05322265625,-1.1328125,-0.6640625,0.48828125,0.25,3.59375,-1.1328125,-3.359375,1.796875,1.3671875,-0.125,0.70703125,-0.5234375,3.15625,-1.1328125,0.94140625,-0.78125,0.326171875,1.4140625,-0.671875,1.390625,1.921875,-2.171875,-3.34375,-2.40625,2.09375,-0.2099609375,1.8046875,-1.6875,-0.3125,2.046875,3.46875,2.078125,-2.90625,-2.0625,-5,0.6640625,-1.2734375,-0.054443359375,-1.78125,-2.359375,-0.431640625,-2.9375,0.25390625,2.6875,4.5625,-1.40625,1.6015625,-4.09375,-3.609375,-1.375,-0.291015625,0.89453125,1.8203125,1.3984375,-1.3046875,0.40234375,1.0078125,-2.78125,-2.546875,3.953125,3.265625,-1.78125,-2.34375,-4.03125,1.5859375,-1.921875,-0.8984375,2.921875,3.921875,0.62109375,-0.224609375,-0.23828125,0.0517578125,4.625,0.7421875,1.78125,0.1943359375,-1.5703125,0.25390625,2.140625,1.625]]}}},"searchableProperties":["id","title","path","content","embedding","embeddingModel","created_at","ctime","mtime","tags","extension"],"searchablePropertiesWithTypes":{"id":"string","title":"string","path":"string","content":"string","embedding":"vector[2560]","embeddingModel":"string","created_at":"number","ctime":"number","mtime":"number","tags":"string[]","extension":"string"},"frequencies":{"id":{"1":{"22fa1c9c87ce1d30b1cd799b22a0a302":1},"2":{"391204ca04c85d9757240aef973fb259":1},"3":{"6fbcfabe3a4241d366b412bb58b7927d":1}},"title":{"1":{},"2":{"go":0.5,"air":0.5},"3":{"go":0.5,"zap":0.5}},"path":{"1":{"md":1},"2":{"go":0.3333333333333333,"air":0.3333333333333333,"md":0.3333333333333333},"3":{"go":0.3333333333333333,"zap":0.3333333333333333,"md":0.3333333333333333}},"content":{"1":{"1":0.021739130434782608,"2":0.021739130434782608,"3":0.021739130434782608,"4":0.021739130434782608,"6":0.021739130434782608,"15":0.021739130434782608,"16":0.021739130434782608,"20":0.021739130434782608,"25":0.021739130434782608,"42":0.021739130434782608,"52":0.021739130434782608,"824":0.021739130434782608,"2025":0.021739130434782608,"note":0.021739130434782608,"title":0.021739130434782608,"metadata":0.021739130434782608,"created":0.021739130434782608,"04":0.021739130434782608,"modified":0.021739130434782608,"block":0.021739130434782608,"content":0.021739130434782608,"-":0.021739130434782608,"sentinel":0.021739130434782608,"envoy":0.021739130434782608,"rate-limit":0.021739130434782608,"hystrix":0.021739130434782608,"resilience4j":0.021739130434782608,"traefik":0.021739130434782608,"kong":0.021739130434782608,"jaeger":0.021739130434782608,"etcd":0.021739130434782608,"nacos":0.021739130434782608,"consul":0.021739130434782608,"redis":0.021739130434782608,"stream":0.021739130434782608,"kafka":0.021739130434782608,"prometheus":0.021739130434782608,"k8s":0.021739130434782608,"rbac":0.021739130434782608,"jwt":0.021739130434782608,"oauth":0.021739130434782608,"ddd":0.021739130434782608,"raft":0.021739130434782608,"lsm":0.021739130434782608,"kv":0.021739130434782608,"mit":0.021739130434782608},"2":{"1":0.017241379310344827,"2":0.017241379310344827,"3":0.017241379310344827,"4":0.017241379310344827,"10":0.017241379310344827,"14":0.017241379310344827,"21":0.017241379310344827,"26":0.017241379310344827,"35":0.017241379310344827,"39":0.017241379310344827,"2025":0.017241379310344827,"8080":0.017241379310344827,"note":0.017241379310344827,"title":0.017241379310344827,"go":0.017241379310344827,"air":0.017241379310344827,"metadata":0.017241379310344827,"created":0.017241379310344827,"04":0.017241379310344827,"09":0.017241379310344827,"modified":0.017241379310344827,"block":0.017241379310344827,"content":0.017241379310344827,"run":0.017241379310344827,"-":0.017241379310344827,"shell":0.017241379310344827,"install":0.017241379310344827,"github":0.017241379310344827,"com":0.017241379310344827,"air-verse":0.017241379310344827,"latest":0.017241379310344827,"get":0.017241379310344827,"mod":0.017241379310344827,"gopath":0.017241379310344827,"pkg":0.017241379310344827,"cli":0.017241379310344827,"init":0.017241379310344827,"toml":0.017241379310344827,"build":0.017241379310344827,"cmd":0.017241379310344827,"-o":0.017241379310344827,"tmp":0.017241379310344827,"main":0.017241379310344827,"bin":0.017241379310344827,"full_bin":0.017241379310344827,"true":0.017241379310344827,"log":0.017241379310344827,"time":0.017241379310344827,"--build":0.017241379310344827,"api":0.017241379310344827,"exclude_dir":0.017241379310344827,"templates":0.017241379310344827,"will":0.017241379310344827,"server":0.017241379310344827,"--port":0.017241379310344827,"gitignore":0.017241379310344827,"systemd":0.017241379310344827,"docker":0.017241379310344827},"3":{"1":0.017543859649122806,"2":0.017543859649122806,"3":0.017543859649122806,"4":0.017543859649122806,"10":0.017543859649122806,"15":0.017543859649122806,"22":0.017543859649122806,"25":0.017543859649122806,"26":0.017543859649122806,"27":0.017543859649122806,"46":0.017543859649122806,"52":0.017543859649122806,"168":0.017543859649122806,"192":0.017543859649122806,"2025":0.017543859649122806,"12345":0.017543859649122806,"note":0.017543859649122806,"title":0.017543859649122806,"go":0.017543859649122806,"zap":0.017543859649122806,"metadata":0.017543859649122806,"created":0.017543859649122806,"04":0.017543859649122806,"modified":0.017543859649122806,"block":0.017543859649122806,"content":0.017543859649122806,"sugaredlogger":0.017543859649122806,"printf":0.017543859649122806,"api":0.017543859649122806,"logger":0.017543859649122806,"-":0.017543859649122806,"logrus":0.017543859649122806,"interface":0.017543859649122806,"field":0.017543859649122806,"sync":0.017543859649122806,"pool":0.017543859649122806,"wrapper":0.017543859649122806,"encoder":0.017543859649122806,"json":0.017543859649122806,"formatter":0.017543859649122806,"i":0.017543859649122806,"o":0.017543859649122806,"info":0.017543859649122806,"user":0.017543859649122806,"logged":0.017543859649122806,"in":0.017543859649122806,"string":0.017543859649122806,"username":0.017543859649122806,"john_doe":0.017543859649122806,"int":0.017543859649122806,"user_id":0.017543859649122806,"ip":0.017543859649122806,"elk":0.017543859649122806,"stack":0.017543859649122806,"elasticsearch":0.017543859649122806,"logstash":0.017543859649122806,"kibana":0.017543859649122806}},"embeddingModel":{"1":{"doubao-embedding-text-240715":1},"2":{"doubao-embedding-text-240715":1},"3":{"doubao-embedding-text-240715":1}},"tags":{},"extension":{"1":{"md":1},"2":{"md":1},"3":{"md":1}}},"tokenOccurrences":{"id":{"22fa1c9c87ce1d30b1cd799b22a0a302":1,"391204ca04c85d9757240aef973fb259":1,"6fbcfabe3a4241d366b412bb58b7927d":1},"title":{"go":2,"air":1,"zap":1},"path":{"md":3,"go":2,"air":1,"zap":1},"content":{"1":3,"2":3,"3":3,"4":3,"6":1,"10":2,"14":1,"15":2,"16":1,"20":1,"21":1,"22":1,"25":2,"26":2,"27":1,"35":1,"39":1,"42":1,"46":1,"52":2,"168":1,"192":1,"824":1,"2025":3,"8080":1,"12345":1,"note":3,"title":3,"metadata":3,"created":3,"04":3,"modified":3,"block":3,"content":3,"-":3,"sentinel":1,"envoy":1,"rate-limit":1,"hystrix":1,"resilience4j":1,"traefik":1,"kong":1,"jaeger":1,"etcd":1,"nacos":1,"consul":1,"redis":1,"stream":1,"kafka":1,"prometheus":1,"k8s":1,"rbac":1,"jwt":1,"oauth":1,"ddd":1,"raft":1,"lsm":1,"kv":1,"mit":1,"go":2,"air":1,"09":1,"run":1,"shell":1,"install":1,"github":1,"com":1,"air-verse":1,"latest":1,"get":1,"mod":1,"gopath":1,"pkg":1,"cli":1,"init":1,"toml":1,"build":1,"cmd":1,"-o":1,"tmp":1,"main":1,"bin":1,"full_bin":1,"true":1,"log":1,"time":1,"--build":1,"api":2,"exclude_dir":1,"templates":1,"will":1,"server":1,"--port":1,"gitignore":1,"systemd":1,"docker":1,"zap":1,"sugaredlogger":1,"printf":1,"logger":1,"logrus":1,"interface":1,"field":1,"sync":1,"pool":1,"wrapper":1,"encoder":1,"json":1,"formatter":1,"i":1,"o":1,"info":1,"user":1,"logged":1,"in":1,"string":1,"username":1,"john_doe":1,"int":1,"user_id":1,"ip":1,"elk":1,"stack":1,"elasticsearch":1,"logstash":1,"kibana":1},"embeddingModel":{"doubao-embedding-text-240715":3},"tags":{},"extension":{"md":3}},"avgFieldLength":{"id":1,"title":1.3333333333333333,"path":2.3333333333333335,"content":53.666666666666664,"embeddingModel":1,"tags":0,"extension":1},"fieldLengths":{"id":{"1":1,"2":1,"3":1},"title":{"1":0,"2":2,"3":2},"path":{"1":1,"2":3,"3":3},"content":{"1":46,"2":58,"3":57},"embeddingModel":{"1":1,"2":1,"3":1},"tags":{},"extension":{"1":1,"2":1,"3":1}}},"docs":{"docs":{"1":{"title":"","path":".md","embeddingModel":"doubao-embedding-text-240715","ctime":1745137242922,"mtime":1745567540381,"tags":[],"extension":"md","metadata":{"created":"2025/04/20 16:20:42","modified":"2025/04/25 15:52:20"},"id":"22fa1c9c87ce1d30b1cd799b22a0a302","content":"\n\nNOTE TITLE: [[]]\n\nMETADATA:{\"created\":\"2025/04/20 16:20:42\",\"modified\":\"2025/04/25 15:52:20\"}\n\nNOTE BLOCK CONTENT:\n\n## 1 \n\n### 1.1 /\n\n- **** Sentinel / Envoy  rate-limit\n- **/** Hystrix / Resilience4j\n- **** Traefik Kong\n- **** Jaeger\n- **/** etcd NacosConsul \n\n### 1.2 \n\n-  Redis Stream Kafka \n\n### 1.3 \n\n- PrometheusK8s\n\n### 1.4  +  + \n\n- RBAC+JWT+OAuth\n- \n-  DDD\n\n## 2 Raft+LSM  KV \n\n- MIT 6.824\n- \n- \n\n## 3 ","embedding":[-3.03125,1.421875,0.875,-2.296875,-1.7109375,4.15625,-1.03125,-2.5625,1.1953125,2.234375,4.40625,2.03125,2.015625,-0.7109375,2.09375,2.375,0.416015625,-1.8515625,-0.80859375,-5.46875,0.62109375,6.1875,3.59375,-5.875,0.0673828125,-4.34375,-1.1015625,1.4375,-0.06591796875,0.4921875,3.046875,-2.046875,-0.83984375,-0.82421875,-1.875,-1.28125,-2.546875,-3.265625,5.25,2.515625,-4.03125,0.41015625,-1.0546875,2.09375,-5.1875,1.890625,1.6328125,-3.328125,-4.9375,-1.9453125,-2.75,-2.375,8.9375,-1.5703125,3.484375,-3.75,-7.625,2.515625,-6.5625,-2.15625,3.015625,-0.392578125,1.8828125,2.84375,0.62109375,1.765625,-1.3828125,1.03125,0.4453125,2.234375,-2.828125,-0.2080078125,6.65625,-1.828125,4.53125,4.78125,0.228515625,3.453125,-1.78125,5.1875,-7.125,1.4765625,4.25,2.96875,4.40625,2.71875,-0.35546875,-1.484375,-3.46875,2.5,0.3125,-1.84375,-4.59375,-3.890625,3.109375,-1.1171875,-1.7265625,-1.875,-3.234375,-1.203125,-8.25,-1.8359375,1.8671875,-2.71875,-2.171875,-2.734375,-4.75,-5.25,-3,-4.03125,-1.421875,-1.5703125,1.546875,-1.609375,5.75,-1.8515625,3.078125,-3.203125,-3.890625,0.609375,-0.236328125,-3.953125,2.78125,-3.46875,0.828125,2.25,-2.109375,5.75,5.5,1.6015625,6.25,2.234375,5.03125,-2.453125,-6.75,-2.296875,-4.09375,2.453125,5.53125,2.9375,-6.53125,1.734375,-3.265625,-5.40625,2.671875,-0.640625,-8.3125,1.0546875,3.796875,0.69140625,-1.0625,1.5390625,3.75,3.703125,-1.5390625,-4.8125,2.4375,1.6875,0.201171875,0.12109375,-0.06884765625,-0.2275390625,2.109375,2.015625,-1.9140625,-1.65625,-1.6875,3.265625,-1.828125,0.640625,0.09423828125,16.5,3.84375,-3.765625,-0.185546875,5,-4.46875,7.6875,5.25,-0.87890625,1.9375,1.8359375,-5.65625,5.78125,-0.7109375,2.75,-1.2890625,0.255859375,3.640625,-1.9609375,1.2734375,4.375,1.359375,2.328125,-3.71875,2.609375,1.8203125,-1.8125,0.412109375,0.6953125,-3.21875,-8.5,-1.0234375,-0.49609375,-1.6875,-4.1875,3.53125,0.6953125,1.1875,2.578125,3.890625,2.671875,-0.54296875,0.32421875,6.1875,-1.1640625,4.34375,-0.212890625,5.25,-1.3515625,3.40625,2.21875,2.921875,-2.1875,-1.5390625,-1.984375,5.6875,2.3125,2.453125,2.34375,0.2470703125,1.078125,6.875,-1.96875,-1.46875,-5.03125,-6.4375,1.5390625,0.90625,1.5,-3.859375,-6.4375,-1.0625,1.9921875,1.3125,-1.6171875,-2.828125,2.21875,-3.828125,-10.8125,-0.484375,3.390625,-5.40625,-1.0703125,-0.61328125,5.90625,-0.7890625,-1.7890625,1.8203125,1.2890625,2.78125,-4.03125,-6.125,3.5625,1.6171875,0.8984375,2.890625,1.9765625,3.34375,1.515625,2.140625,-3.3125,1.7265625,0.10986328125,-1.421875,8.6875,-2.265625,-2.5,0.0194091796875,-3.5625,-6.59375,-7.40625,4.6875,-2.296875,3.203125,-5.3125,-1.515625,5.34375,0.326171875,11.875,4.6875,0.435546875,0.3125,-2.375,-4.71875,1.1484375,-1.265625,0.53515625,-3.828125,0.984375,3.4375,1.8125,-0.5546875,0.73828125,-2.1875,1.640625,-0.90234375,-2.078125,-0.1484375,0.7890625,-1.0625,0.1435546875,6.90625,-4.125,2.484375,-2.3125,-0.12890625,2.03125,1.671875,0.2197265625,-2.21875,-1.515625,-5.84375,-2.25,-4.09375,-1.3984375,3.6875,0.216796875,6.3125,1.515625,5.46875,-0.392578125,-7.46875,-8.8125,7.78125,0.5703125,0.10107421875,6.0625,-4.125,0.7578125,-4.875,-4.375,3.078125,-3.921875,-1.7890625,2.765625,3.515625,-2.390625,1.8125,-4.8125,0.9921875,1.953125,-0.703125,5.71875,8,-2.734375,0.78515625,0.66796875,0.1083984375,-1.453125,0.11474609375,-2.078125,7.53125,2.609375,-1.34375,-2.984375,-2.234375,3.046875,-4.46875,-2.21875,-0.447265625,-3.671875,4.21875,1.2734375,-0.259765625,-2.375,-2.78125,-2.828125,-5.46875,1.7265625,0.734375,-2.515625,3.328125,-2.703125,2.0625,3,1.296875,4.78125,0.251953125,-1.8125,-2.4375,2.203125,-1.5625,-0.240234375,1.6328125,1.96875,-1.5,1.3359375,-3.09375,0.7734375,1.3515625,-0.5625,1.75,1.5703125,-3.859375,0.37890625,0.359375,-7.90625,4.125,2.859375,-0.2119140625,0.69140625,2.34375,-2.25,-0.123046875,2.40625,-1.4453125,1.828125,-8.8125,0.69921875,-2.65625,5.125,2.984375,-2.03125,1.0234375,-1.1484375,2.046875,7.75,2.640625,1.21875,3.03125,1.8671875,-3.625,-3.734375,-0.7109375,-4.84375,0.703125,-6.71875,-4.28125,3.046875,4.5625,0.34765625,2.84375,2.546875,-4.53125,-2.859375,2.5,5,-3.34375,-2.59375,-1.390625,0.44921875,-2.8125,4.03125,4.40625,-0.82421875,-3.6875,2.25,4.84375,-1.4453125,0.60546875,-5.375,1.90625,0.04541015625,3.1875,-4.5625,-1.046875,4.65625,7.21875,-4.9375,-6.6875,1.921875,-3.75,-4.09375,-1.8359375,3.171875,-0.095703125,0.5546875,-5.65625,-6.46875,-1.25,-1.4609375,6.875,0.349609375,0.42578125,-4.53125,1.5546875,7.53125,1.734375,4.3125,-1.1484375,0.8359375,3.671875,-3.15625,1.15625,5.78125,9.125,-0.1318359375,-0.68359375,0.7734375,-7.3125,0.042236328125,-1.96875,-2,-1.5703125,3.625,5,-4.40625,-0.04443359375,-0.6953125,4.21875,-1.1484375,-3.71875,2.03125,-0.12890625,-5.40625,-0.006927490234375,1.2578125,2.453125,-3.65625,-1.8984375,0.302734375,1.34375,-0.251953125,-1.265625,-1.5390625,1.140625,-1.9375,0.62109375,4.34375,4.625,-0.162109375,-0.359375,-3.46875,-2.5,-2.84375,0.7734375,-3.171875,0.173828125,-0.25,3.390625,-0.88671875,-4.3125,-2.015625,0.84375,1.484375,-0.484375,0.4140625,-0.0196533203125,1.625,4.15625,-1.03125,-6.75,2.140625,2.296875,-0.6484375,-4.53125,-3.5,3.4375,0.953125,-1,-3.046875,7.53125,2.375,0.380859375,1.3671875,2.5,6.65625,3.6875,-0.490234375,1.0703125,2.03125,-3.46875,-2.78125,0.86328125,2.28125,-3.09375,-5.375,-0.625,1.046875,3.265625,-1.0546875,1.0078125,-2.71875,4.875,0.1982421875,3.21875,-11.625,3.65625,-2.15625,-4.875,-1.6015625,-5.03125,2.921875,-2.890625,-0.8515625,1.3984375,-3.59375,0.9296875,5.90625,-2.78125,2.3125,5.25,-0.88671875,-2.5,2.859375,0.291015625,-1.1875,1.25,1.6328125,2.34375,0.216796875,2.84375,-2.40625,2.15625,3.453125,-6.78125,-1.0234375,4.28125,-1.59375,-2.296875,0.5234375,-4.03125,3.40625,-2.6875,3.96875,1.2109375,-6.65625,2.25,3.09375,-1.6328125,0.60546875,-3,1.9453125,3.4375,3.9375,-3.953125,1.28125,3.984375,2.328125,2.375,-1.53125,2.6875,-2.96875,3.921875,1.2734375,-2.9375,2.453125,-0.2158203125,-4.125,2.40625,1.3515625,0.302734375,-1.5390625,0.8203125,1.0625,1.1875,-4.5,0.9140625,-2.328125,-5.125,1.9140625,0.244140625,-5.40625,4.96875,-2.890625,0.369140625,-3.765625,0.57421875,2.484375,2.234375,-2.65625,0.048828125,4.40625,0.50390625,-1.828125,5.6875,-2.28125,-1.7734375,0.5703125,-2.90625,-1.578125,-0.0703125,0.625,-0.58984375,-1.296875,-3.328125,-0.71484375,-6.78125,-4.03125,-0.8359375,-3.515625,1.484375,-3.296875,3.171875,-0.0224609375,-2.765625,0.91015625,-0.71484375,-0.64453125,-0.302734375,-0.87890625,-5.375,-0.2421875,7.3125,1.6328125,-0.703125,6.03125,0.28515625,-4.71875,-3.265625,2.46875,-3.703125,-0.275390625,3.78125,-1.765625,-2.046875,-2.609375,0.421875,-2.203125,-0.578125,-1.328125,0.6171875,-1.8046875,-4.71875,-1.765625,-4.75,-3.71875,3.78125,2.03125,-2.09375,-5.40625,1.015625,3.046875,-0.82421875,1.625,1.109375,1.5,-3.203125,2.09375,-2.140625,-3.375,2.8125,-0.7109375,-1.9765625,1.890625,-3.34375,2.0625,3.234375,2.953125,-3.375,-3.75,0.5,-2.296875,1.6171875,0.349609375,2.671875,-1.1796875,6.15625,-3.40625,-3.546875,0.1025390625,6.375,-1.9453125,-1.5625,-4.4375,2.59375,-3.015625,4.1875,-2.984375,-3.046875,0.921875,0.453125,0.5390625,0.49609375,8,-3.75,-0.2451171875,-0.380859375,1.8828125,1.171875,-1.203125,2.546875,1.0625,-0.185546875,0.25390625,4.90625,0.6015625,-2.125,0.3046875,-4.53125,1.4140625,0.90625,1.4296875,-1.0859375,-1.4765625,0.1103515625,-2.234375,0.51953125,5.21875,6.375,0.85546875,2.921875,-2.390625,2.625,-3.59375,2.25,2.671875,11.625,-1.828125,-3.9375,2.75,2.6875,2.390625,0.038818359375,-6.25,-1.4296875,1.078125,4.03125,-5.25,-0.007781982421875,-1.90625,2.15625,0.7109375,1,3.25,0.318359375,5.1875,-0.98046875,-2.484375,2.109375,-1.421875,-0.283203125,0.69921875,4.0625,-0.95703125,2.1875,1.625,6.25,-1.3828125,-3.625,-4.5625,4.40625,2.453125,-0.73046875,0.65625,-2.140625,2.234375,1.0625,6.03125,-2.453125,-0.69140625,6,3.578125,-3.140625,3.125,0.60546875,2.09375,-2.421875,-3.59375,0.53125,-3.125,-0.140625,-6.25,-0.9296875,1.15625,-3.4375,4.40625,-2.40625,-1.4140625,3.9375,3.546875,-1.84375,0.734375,-0.78515625,4.90625,1.2734375,0.1689453125,-5.0625,-2.9375,-4.375,3.796875,2.453125,1.4609375,0.16796875,-1.2109375,0.291015625,-3.859375,-1.015625,-4.0625,4.3125,4.375,-4.75,0.62890625,-5.21875,-17.5,-6.3125,-1.7421875,-2.65625,-2.5625,-6.375,-2.03125,-2.40625,-2.75,3.28125,-0.69921875,-2.234375,5.09375,0.58984375,0.4453125,-3.34375,2.671875,6.125,3.9375,2.8125,-0.9296875,1.109375,2.46875,-0.53125,3.1875,-5.96875,6.21875,1.1640625,5,4.71875,1.578125,-5.53125,4.9375,1.8046875,-2.046875,-5.34375,0.77734375,-1.359375,-0.52734375,2.46875,-3.84375,1.875,-3.96875,-2.046875,0.5078125,-6.3125,-0.0216064453125,2.96875,-1.1953125,3.140625,-0.283203125,1.140625,-0.59375,1.171875,0.396484375,3.890625,0.049072265625,-3.078125,0.65625,1.4765625,1.1796875,1.0625,-3.578125,0.71875,2.234375,2.96875,3.421875,1.5546875,6.84375,4.84375,3.921875,-0.1708984375,0.671875,-0.546875,1.0625,2.78125,6.15625,-0.00927734375,0.48046875,-0.81640625,-0.84765625,1.375,-1.328125,-7.9375,-3.65625,-3.375,-5.5,4.25,-0.91015625,0.77734375,2.21875,1.734375,5.5625,4.09375,0.8046875,3.109375,0.58203125,-3.25,2.109375,